tree
version=v4
num_class=1
num_tree_per_iteration=1
label_index=0
max_feature_idx=209
objective=binary sigmoid:1
feature_names=gender renal_ischemic second_operation ventilation_time second_ICU Sun Ben aorta arch David Wheat CABG valve height weight BMI intraoperative_urine intraoperative_hemorrhage intraoperative_fluid platelet_rich_plasma intraoperative_blood intraoperative_plasma intraoperative_autoblood intraoperative_WRBC intraoperative_PLT intraoperative_SBP intraoperative_SBPvariation intraoperative_DBP intraoperative_DBPvariation intraoperative_MAP intraoperative_dopamine intraoperative_dobutamine intraoperative_epinephrine intraoperative_noradrenaline intraoperative_isoprenaline intraoperative_methoxamine intraoperative_Milrinone hypophysin CPB_VIS adverse_event operation_time CPB_time Myocardial_vascularization_time cadiac_arrest_time CPBMIN_temperature P_F PEEP CVP firsthour_urine dopamine dobutamine epinephrine noradrenaline ICU_hypophysin ICU_VIS ebrantil nicardipine esmolol diltiazem milrinone Levosimendan vancomycin isoprenaline metaraminol amiodarone hydragogue natriuretic_peptide MAX_urine MIN_urine hypertension diabetes hyperlipemia ACS arrhythmia valvular_heart_disease cerebrovascular_disease COPD chronic_bronchitis asthma pulmonary_embolism kidney_stone kidney_cancer polycystic_kidney hyperuricemia smoke drink trauma surgery SBP DBP HR WBC_MAX WBC_MIN_ RBC_MAX RBC_MIN PLT_MAX PLT_MIN HB_MAX HB_MIN LYM_P_MAX LYM_P_MIN MONO_P_MAX MONO_P_MIN NE_P_MAX NE_P_MIN LYM_MAX LYM_MIN MONO_MAX MONO_MIN NE_MAX NE_MIN HCT_MAX HCT_MIN MCV_MAX MCV_MIN MCH_MAX MCH_MIN MCHC_MAX MCHC_MIN MPV_MAX MPV_MIN EOS_MAX EOS_MIN EOS_P_MAX EOS_P_MIN BAS_MAX BAS_MIN BAS_P_MAX BAS_P_MIN CRP_MAX CRP_MIN ALT_MAX ALT_MIN AST_MAX AST_MIN UREA_MAX UREA_MIN Scr_MAX Scr_MIN egfrmin UA_MAX UA_MIN GLU_MAX GLU_MIN CK_MAX CK_MIN CKMB_MAX CKMB_MIN LDH_MAX LDH_MIN TNI_MAX TNI_MIN MB_MAX MB_MIN P_MAX P_MIN TP_MAX TP_MIN ALB_MAX ALB_MIN A/G_MAX A/G_MIN TBIL_MAX TBIL_MIN DBIL_MAX DBIL_MIN ALP_MAX ALP_MIN GGT_MAX GGT_MIN CHE_MAX CHE_MIN BNP_MAX BNP_MIN PT_MAX PT_MIN PT_P_MAX PT_P_MIN APTT_MAX APTT_MIN INR_MAX INR_MIN FDP_MAX FDP_MIN FBG_MAX FBG_MIN DD_MAX DD_MIN PH_MAX PH_MIN PCO2_MAX PCO2_MIN PO2_MAX PO2_MIN LAC_MAX LAC_MIN BE_MAX BE_MIN HCO3_MAX HCO3_MIN K_MAX K_MIN NA_MAX NA_MIN CL_MAX CL_MIN MG_MAX MG_MIN PCT_MAX PCT_MIN
feature_infos=[0:1] [0:1] [0:1] [5.5:2949] [0:2] [0:1] [0:1] [0:1] [0:1] none none [0:1] [0:1] [1.45:2.02] [38:180] [15:60.140000000000001] [0:6400] [100:8000] [500:25500] [0:1500] [0:14] [0:4500] none [0:4647] [0:2] [50:180] [0:1] [30:100] [0:1] [36.670000000000002:116.67] [0:11] [0:8] [0:3] [0:3] [0:5] none [0:3] [0:0.00302521] [0:307.39999999999998] [0:1] [2.5:18] [84:465] [23:254] [0:87] [14:36.100000000000001] [0:1] [0:12] [3:22] [0:1300] [0:15] [0:10] [0:0.29999999999999999] [0:0.76000000000000001] [0:0.0048780489999999998] [0:88.299999999999997] [0:1] [0:1] [0:1] [0:1] [0:1] [0:1] [0:1] [0:1] [0:1] [0:1] [0:2] [0:1] [0:1950] [0:600] [0:1] [0:1] [0:1] [0:1] none none [0:2] none none none none none none none none [0:1] [0:1] [0:1] [0:1] [65:201] [14.68:768] [62:215.03] [4.2699999999999996:66.150000000000006] [0:22.469999999999999] [2.1200000000000001:9.4399999999999995] [1.4099999999999999:67.900000000000006] [16:734] [0.40000000000000002:342] [63:300.30000000000001] [43:174.09999999999999] [3.2999999999999998:80.299999999999997] [0:67.900000000000006] [3.5:38.799999999999997] [0:67.900000000000006] [67.700000000000003:98.299999999999997] [0:92.599999999999994] [0.25:15.06] [0:1.8400000000000001] [0.32000000000000001:11.34] [0:1.5] [2.7599999999999998:64.299999999999997] [0:23.079999999999998] [18:77.930000000000007] [0:50.109999999999999] [67.5:116.5] [0:105.8] [21.600000000000001:41.100000000000001] [0:35.600000000000001] [300:430] [0:360] [0:16] [0:13.199999999999999] [0:1.8200000000000001] [0:0.34999999999999998] [0:29.800000000000001] [0:3.6000000000000001] [0:1.96] [0:0.050000000000000003] [0:8.5] [0:0.29999999999999999] [0:351.17000000000002] [0:349.63] [5:6856] [0:6262] [12:19982] [0:8705] [3.1499999999999999:88.379999999999995] [0:42.700000000000003] [34.700000000000003:1269.0999999999999] [0:607.70000000000005] [3.688935453:151.84464249999999] [40:2086] [0:941.79999999999995] [2.4900000000000002:38.159999999999997] [0:23.890000000000001] [0:225900] [0:45684] [0:443] [0:149.5] [0:38866] [0:17032.900000000001] [0:79.489999999999995] [0:24] [0:33580] [0:22212] [0:4.5800000000000001] [0:2.7000000000000002] [0:92.459999999999994] [0:83.700000000000003] [11.300000000000001:50.5] [0:44.700000000000003] [0:356.10000000000002] [0:52.579999999999998] [0:524.42999999999995] [0:344.64999999999998] [0:449.43000000000001] [0:311.58999999999997] [0:487] [0:403] [0:755] [0:722] [0:13.300000000000001] [0:13.300000000000001] [0:5017] [0:3932] [0:74.400000000000006] [0:31.100000000000001] [0:211] [0:175] [0:323.60000000000002] [0:91.099999999999994] [0:6.21] [0:2.6699999999999999] [0:507.69999999999999] [0:163.80000000000001] [0:10.5] [0:7.0999999999999996] [0:59030] [0:18855] [0:7.8399999999999999] [0:7.4400000000000004] [0:146] [0:42.100000000000001] [0:45158] [0:187] [0:30] [0:13.300000000000001] [-4.5999999999999996:19.899999999999999] [-21.899999999999999:2.1000000000000001] [0:61] [0:26.600000000000001] [0:41] [0:4.54] [0:180] [0:144.30000000000001] [0:160] [0:112] [0:116.62] [0:1.1000000000000001] [0:195.63] [0:76.819999999999993]
tree_sizes=862 859 854 860 862 851 848 862 872 851 851 870 869 865 859 868 871 861 869 856 863 866 869 865 867 851 857 862 870 869 864 871 863 760 850 865 868 872 859 869 868 867 867 764 865 870 761 863 558 862

Tree=0
num_leaves=7
num_cat=0
split_feature=137 137 139 3 135 209
split_gain=507.949 57.9609 37.1191 33.7793 26.7938 17.397
threshold=146.75000000000003 112.05000000000003 31.469577485000006 165.00000000000003 15.740000000000002 4.5850000000000009
decision_type=2 2 2 2 2 2
left_child=1 3 -2 -1 -3 -4
right_child=2 4 5 -5 -6 -7
leaf_value=-0.3929696899571139 -0.053307084066884586 -0.3350651245215146 -0.14501005788254251 -0.13294982444410391 -0.19516758339446533 -0.32915608298105109
leaf_weight=159.401740193367 75.157060861587524 27.754078030586243 31.192636370658875 5.1578375101089469 27.017244100570679 6.1402827501296988
leaf_count=649 306 113 127 21 110 25
internal_value=-0.266556 -0.355162 -0.0937929 -0.38482 -0.266057 -0.175297
internal_weight=0 219.331 112.49 164.56 54.7713 37.3329
internal_count=1351 893 458 670 223 152
is_linear=0
shrinkage=1


Tree=1
num_leaves=7
num_cat=0
split_feature=137 137 137 106 3 118
split_gain=409.419 48.6716 30.8286 23.4965 22.2252 19.0996
threshold=146.75000000000003 98.550000000000011 195.05000000000004 0.27500000000000008 130.25000000000003 324.09500000000008
decision_type=2 2 2 2 2 2
left_child=1 4 5 -3 -1 -2
right_child=2 3 -4 -5 -6 -7
leaf_value=-0.12869007899777457 0.15273116310734669 0.049630563092071471 0.18714697437030473 -0.0602983821209995 0.078394806317845456 0.0031571655228381083
leaf_weight=123.66403672099113 16.166643485426903 29.331763952970505 79.856629252433777 57.677135795354843 5.4093113839626303 18.089805111289024
leaf_count=514 65 120 320 237 22 73
internal_value=0 -0.0810449 0.153104 -0.02324 -0.120011 0.0737456
internal_weight=0 216.082 114.113 87.0089 129.073 34.2564
internal_count=1351 893 458 357 536 138
is_linear=0
shrinkage=0.1


Tree=2
num_leaves=7
num_cat=0
split_feature=137 137 3 137 135 138
split_gain=334.277 43.2456 25.502 25.2722 22.0213 18.0245
threshold=146.75000000000003 112.05000000000003 107.50000000000001 195.05000000000004 17.220000000000002 78.15000000000002
decision_type=2 2 2 2 2 2
left_child=1 2 -1 5 -3 -2
right_child=3 4 -4 -5 -6 -7
leaf_value=-0.11206227682175214 0.15366943901421393 -0.045561067621049597 0.044436904016011636 0.16882890072935561 0.086634870121787347 0.0061809334201297968
leaf_weight=146.46693952381611 13.971448451280592 34.743109747767448 11.209269925951956 79.666678786277771 19.772256091237068 20.362247958779335
leaf_count=624 56 143 46 320 80 82
internal_value=0 -0.0743916 -0.100937 0.13792 0.00238527 0.0661986
internal_weight=0 212.192 157.676 114 54.5154 34.3337
internal_count=1351 893 670 458 223 138
is_linear=0
shrinkage=0.1


Tree=3
num_leaves=7
num_cat=0
split_feature=137 135 3 137 139 173
split_gain=276.435 46.1534 24.8004 21.4011 14.6499 11.2131
threshold=157.95000000000002 15.740000000000002 137.25000000000003 112.05000000000003 31.469577485000006 160.50000000000003
decision_type=2 2 2 2 2 2
left_child=1 2 -1 -3 -2 -6
right_child=4 3 -4 -5 5 -7
leaf_value=-0.097663534676345434 0.15867189401958193 -0.071165171155048043 0.099169369122812878 0.063525524115304474 0.1284773580246491 0.00017220823840708206
leaf_weight=158.86913537979126 74.354729428887367 17.861318364739418 6.669969990849494 34.743237003684044 15.93015366792679 11.899383813142775
leaf_count=691 304 77 27 140 64 48
internal_value=0 -0.0638033 -0.0897327 0.0177927 0.135507 0.0736165
internal_weight=0 218.144 165.539 52.6046 102.184 27.8295
internal_count=1351 935 718 217 416 112
is_linear=0
shrinkage=0.1


Tree=4
num_leaves=7
num_cat=0
split_feature=139 137 135 131 138 136
split_gain=230.1 38.321 19.5719 17.3962 14.9505 11.3152
threshold=43.781102165000007 98.550000000000011 15.740000000000002 128.50000000000003 45.650000000000013 8.4450000000000021
decision_type=2 2 2 2 2 2
left_child=2 4 5 -3 -2 -1
right_child=1 3 -4 -5 -6 -7
leaf_value=0.083905737128583582 -0.042903371169870197 -0.041813274023523056 0.13674659256593247 0.051773172658585977 -0.12104039795457594 -0.11788704694247415
leaf_weight=6.498520612716673 34.639352113008499 62.128733232617378 92.44013412296772 29.196115389466286 83.552676022052765 4.8545967191457748
leaf_count=27 156 262 385 122 379 20
internal_value=0 -0.060547 0.121529 -0.0118941 -0.0981402 -0.00238092
internal_weight=0 209.517 103.793 91.3248 118.192 11.3531
internal_count=1351 919 432 384 535 47
is_linear=0
shrinkage=0.1


Tree=5
num_leaves=7
num_cat=0
split_feature=137 3 137 139 173 198
split_gain=193.805 36.0846 28.1445 12.57 9.07631 6.07794
threshold=157.95000000000002 137.25000000000003 92.65000000000002 31.469577485000006 160.50000000000003 30.750000000000004
decision_type=2 2 2 2 2 2
left_child=1 2 -1 -2 -5 -3
right_child=3 5 -4 4 -6 -7
leaf_value=-0.10428462206527878 0.13884805088581256 0.039489484272458367 -0.028308393786582245 0.10895499565059508 -0.0070877556168526673 0.1722256333793912
leaf_weight=95.771117210388184 69.85274039208889 7.3996682465076429 99.32188917696476 15.666312396526338 11.829826712608336 6.4624055922031403
leaf_count=452 304 30 427 64 48 26
internal_value=0 -0.054528 -0.0656051 0.116303 0.0590292 0.10137
internal_weight=0 208.955 195.093 97.3489 27.4961 13.8621
internal_count=1351 935 879 416 112 56
is_linear=0
shrinkage=0.1


Tree=6
num_leaves=7
num_cat=0
split_feature=135 3 139 137 174 17
split_gain=166.732 31.3511 26.7673 20.3483 12.7685 9.10942
threshold=17.220000000000002 25.250000000000004 34.560307845000004 88.350000000000009 14.15 1750.0000000000002
decision_type=2 2 2 2 2 2
left_child=1 5 -2 -3 -4 -1
right_child=2 3 4 -5 -6 -7
leaf_value=-0.10625820205842405 0.13514159720327101 -0.076317912950135347 -0.024363708050212832 0.02330667204892008 0.078903284096910026 0.033069172876980857
leaf_weight=91.366476714611053 66.09969587624073 33.856442287564278 19.742529630661011 51.97667171061039 30.426319047808647 4.9467132836580268
leaf_count=431 299 164 82 227 126 22
internal_value=0 -0.059937 0.0933404 -0.0159897 0.0382655 -0.0991022
internal_weight=0 182.146 116.269 85.8331 50.1688 96.3132
internal_count=1351 844 507 391 208 453
is_linear=0
shrinkage=0.1


Tree=7
num_leaves=7
num_cat=0
split_feature=137 137 138 3 132 193
split_gain=141.715 35.0937 19.3255 16.2184 8.88763 5.67636
threshold=176.95000000000002 112.05000000000003 85.000000000000014 107.50000000000001 139.50000000000003 70.450000000000017
decision_type=2 2 2 2 2 2
left_child=1 3 -3 -1 5 -2
right_child=4 2 -4 -5 -6 -7
leaf_value=-0.082941630788182286 0.1312779501692421 0.047350361087206069 -0.058767025710507403 0.043748418002214767 -0.021845368227440209 0.016239152273440343
leaf_weight=125.37420284748077 68.382380813360214 51.125910714268684 25.833148211240768 10.990504816174505 4.4281283617019644 4.5762951970100394
leaf_count=624 320 213 108 46 20 20
internal_value=0 -0.0422608 0.0117295 -0.0727309 0.115713 0.124062
internal_weight=0 213.324 76.9591 136.365 77.3868 72.9587
internal_count=1351 991 321 670 360 340
is_linear=0
shrinkage=0.1


Tree=8
num_leaves=7
num_cat=0
split_feature=135 186 137 139 139 64
split_gain=121.528 29.0876 21.8196 16.4446 9.21598 8.26265
threshold=17.220000000000002 2692.5000000000005 118.00000000000001 54.150680755000003 34.560307845000004 1.0000000180025095e-35
decision_type=2 2 2 2 2 2
left_child=1 5 -2 -3 -4 -1
right_child=2 3 4 -5 -6 -7
leaf_value=-0.099605740834072254 -0.040301487765465903 0.081203208302420282 0.12268052828829146 -0.031085851777027863 0.059104463453241267 0.0028879436510197832
leaf_weight=84.953299939632416 12.829472452402113 16.442422017455101 59.924619093537331 63.066639631986618 36.805191084742546 8.6680198013782483
leaf_count=423 57 72 299 307 151 42
internal_value=0 -0.0523427 0.0822376 -0.00786455 0.0984902 -0.0901163
internal_weight=0 173.13 109.559 79.5091 96.7298 93.6213
internal_count=1351 844 507 379 450 465
is_linear=0
shrinkage=0.1


Tree=9
num_leaves=7
num_cat=0
split_feature=137 135 186 136 132 112
split_gain=102.881 27.447 19.2445 16.2883 8.22716 5.45137
threshold=176.95000000000002 15.365 2692.5000000000005 8.3350000000000026 139.50000000000003 28.750000000000004
decision_type=2 2 2 2 2 2
left_child=1 2 -1 -3 5 -2
right_child=4 3 -4 -5 -6 -7
leaf_value=-0.093921410085751486 0.12050083196972963 0.064657531906761864 -0.01868056625787938 -0.034985383054741158 -0.029881852079801392 0.0074953298803254595
leaf_weight=78.595883727073669 61.637833207845688 34.358629763126373 59.902462869882584 31.39581011235714 4.3119308948516837 4.5864487141370764
leaf_count=414 319 149 293 135 20 21
internal_value=0 -0.0361204 -0.0613787 0.017081 0.10396 0.112674
internal_weight=0 204.253 138.498 65.7544 70.5362 66.2243
internal_count=1351 991 707 284 360 340
is_linear=0
shrinkage=0.1


Tree=10
num_leaves=7
num_cat=0
split_feature=135 3 139 133 174 17
split_gain=87.6361 24.082 18.5499 14.9181 9.4458 8.10159
threshold=17.220000000000002 25.250000000000004 34.560307845000004 163.50000000000003 14.15 1750.0000000000002
decision_type=2 2 2 2 2 2
left_child=1 5 -2 -3 -4 -1
right_child=2 3 4 -5 -6 -7
leaf_value=-0.090002662890981897 0.11303640214036995 -0.026608335060492525 -0.026227397827982796 0.084422579514189466 0.063491183487247013 0.044862855335919334
leaf_weight=79.989775806665421 53.617264270782471 65.197068497538567 19.436673700809479 14.85911566019058 29.614014327526093 4.7168410569429389
leaf_count=431 299 322 82 69 126 22
internal_value=0 -0.0453259 0.0723805 -0.00600004 0.0279396 -0.0824928
internal_weight=0 164.763 102.668 80.0562 49.0507 84.7066
internal_count=1351 844 507 391 208 453
is_linear=0
shrinkage=0.1


Tree=11
num_leaves=7
num_cat=0
split_feature=139 142 64 186 98 193
split_gain=75.6813 19.4668 16.1567 12.2895 12.2486 11.2159
threshold=53.319644530000012 9.2750000000000004 1.0000000180025095e-35 2780.0000000000005 93.500000000000014 52.150000000000013
decision_type=2 2 2 2 2 2
left_child=1 5 3 -2 -3 -1
right_child=2 4 -4 -5 -6 -7
leaf_value=0.053455560972425979 -0.084822152990449554 0.092756622186654314 0.03467422636642481 -0.023304732048855005 -0.032688921898263466 -0.13070292473705522
leaf_weight=6.0063328146934492 74.665377780795097 84.126235336065292 21.898288995027542 57.469094499945641 8.5771101862192136 7.3590189814567566
leaf_count=31 419 438 106 285 39 33
internal_value=0 0.0648836 -0.0448818 -0.0580665 0.0811501 -0.0479429
internal_weight=0 106.069 154.033 132.134 92.7033 13.3654
internal_count=1351 541 810 704 477 64
is_linear=0
shrinkage=0.1


Tree=12
num_leaves=7
num_cat=0
split_feature=137 137 136 138 132 185
split_gain=67.1563 21.1026 17.9029 15.458 8.06848 5.09533
threshold=176.95000000000002 98.550000000000011 8.3350000000000026 45.650000000000013 154.00000000000003 4.1350000000000007
decision_type=2 2 2 2 2 2
left_child=1 3 -3 -1 5 -2
right_child=4 2 -4 -5 -6 -7
leaf_value=-0.0022486007867301371 0.10948657257209581 0.037593239647769616 -0.04776587518012218 -0.091478701038291199 -0.046974523838841091 0.00039854889788589826
leaf_weight=28.034641623497009 52.639791190624237 59.38087423145771 41.914882004261017 63.142333418130875 3.9601673483848563 4.6608291566371909
leaf_count=156 317 269 186 380 19 24
internal_value=0 -0.0291418 0.00227274 -0.0640427 0.0910726 0.100613
internal_weight=0 192.473 101.296 91.177 61.2608 57.3006
internal_count=1351 991 455 536 360 341
is_linear=0
shrinkage=0.1


Tree=13
num_leaves=7
num_cat=0
split_feature=135 186 205 133 100 135
split_gain=59.8328 24.5578 13.7927 12.0922 5.39848 6.20538
threshold=22.060000000000006 2780.0000000000005 105.95000000000002 133.50000000000003 3.2500000000000004 25.975000000000005
decision_type=2 2 2 2 2 2
left_child=1 3 -3 -1 -2 -6
right_child=4 2 -4 -5 5 -7
leaf_value=-0.075207932210716949 0.11975473643971746 0.021986325869597381 -0.11171945551573399 0.022985390923361437 -0.010522336313343657 0.10543938115256318
leaf_weight=83.886095523834229 33.126190572977066 88.544642969965935 8.4516628831624967 14.745816573500631 8.5006529688835162 10.094580814242361
leaf_count=482 206 437 42 75 43 66
internal_value=0 -0.0253921 0.010336 -0.0605277 0.0955491 0.0524285
internal_weight=0 195.628 96.9963 98.6319 51.7214 18.5952
internal_count=1351 1036 479 557 315 109
is_linear=0
shrinkage=0.1


Tree=14
num_leaves=7
num_cat=0
split_feature=135 154 3 109 186 137
split_gain=51.6459 19.681 16.148 12.5797 10.5058 7.40111
threshold=15.650000000000002 1.3650000000000004 165.00000000000003 22.135000000000002 2412.0000000000005 112.05000000000003
decision_type=2 2 2 2 2 2
left_child=2 3 4 -2 -1 -3
right_child=1 5 -4 -5 -6 -7
leaf_value=-0.079390840305794352 -0.020802417158400303 -0.013460185253200163 0.13980921463867096 0.10992268738561091 -0.02182676116876622 0.10028839562847258
leaf_weight=60.05245877802372 39.949943676590919 6.3886018246412268 4.696975201368331 9.0240238606929761 67.164288729429245 54.666317149996758
leaf_count=374 194 30 20 51 358 324
internal_value=0 0.0505076 -0.042277 0.00328521 -0.0489998 0.0883861
internal_weight=0 110.029 131.914 48.974 127.217 61.0549
internal_count=1351 599 752 245 732 354
is_linear=0
shrinkage=0.1


Tree=15
num_leaves=7
num_cat=0
split_feature=137 137 138 174 132 193
split_gain=45.9248 18.0173 16.8068 15.2159 7.57083 3.57027
threshold=195.05000000000004 86.700000000000017 40.250000000000007 13.550000000000002 154.00000000000003 66.750000000000014
decision_type=2 2 2 2 2 2
left_child=1 2 -1 -3 5 -2
right_child=4 3 -4 -5 -6 -7
leaf_value=0.031833258345102991 0.11142245116459769 -0.049878075179964967 -0.094624452740439804 0.023246985019405281 -0.05237202664381016 0.0104215138664347
leaf_weight=13.514593139290808 38.025973625481129 42.164072632789612 47.270300090312958 87.520505979657173 3.4316068440675727 3.8546333685517302
leaf_count=78 279 212 320 421 17 24
internal_value=0 -0.0215845 -0.0665085 -0.000528011 0.0904259 0.102126
internal_weight=0 190.469 60.7849 129.685 45.3122 41.8806
internal_count=1351 1031 398 633 320 303
is_linear=0
shrinkage=0.1


Tree=16
num_leaves=7
num_cat=0
split_feature=135 186 145 137 100 135
split_gain=39.9976 17.5731 12.9037 10.4944 5.37013 5.55004
threshold=22.060000000000006 2780.0000000000005 101.50000000000001 92.65000000000002 3.2500000000000004 25.975000000000005
decision_type=2 2 2 2 2 2
left_child=1 3 -3 -1 -2 -6
right_child=4 2 -4 -5 5 -7
leaf_value=-0.092828416863727059 0.11179577816183497 0.058014358587251041 -0.018526039124336882 -0.023702618821592483 -0.018787465561394406 0.096676502770214168
leaf_weight=37.065859600901604 27.929566651582718 34.880452319979668 59.766308441758156 53.898363783955574 8.1685597300529498 8.4895048364996892
leaf_count=281 206 171 308 276 43 66
internal_value=0 -0.0204835 0.00968162 -0.0518698 0.0849939 0.0400568
internal_weight=0 185.611 94.6468 90.9642 44.5876 16.6581
internal_count=1351 1036 479 557 315 109
is_linear=0
shrinkage=0.1


Tree=17
num_leaves=7
num_cat=0
split_feature=137 3 137 132 16 193
split_gain=35.4969 14.8104 13.4705 6.8139 5.1458 3.45253
threshold=195.05000000000004 162.75000000000003 86.700000000000017 154.00000000000003 1750.0000000000002 66.750000000000014
decision_type=2 2 2 2 2 2
left_child=1 2 -1 5 -3 -2
right_child=3 4 -4 -5 -6 -7
leaf_value=-0.067278623844375038 0.10710321484568622 0.16077767714846208 -0.0071535662137827546 -0.050184499629624874 0.027969628107970282 0.0055321486125916169
leaf_weight=54.339121207594872 33.51637326925993 5.4838528335094434 118.5737741664052 3.4375553727149954 6.2339925169944763 3.7177643552422515
leaf_count=390 279 26 588 17 27 24
internal_value=0 -0.0186753 -0.0260483 0.0845248 0.0901227 0.0969615
internal_weight=0 184.631 172.913 40.6717 11.7178 37.2341
internal_count=1351 1031 978 320 53 303
is_linear=0
shrinkage=0.1


Tree=18
num_leaves=7
num_cat=0
split_feature=137 92 154 53 132 193
split_gain=30.5364 13.3779 13.3205 12.1461 6.06289 3.2714
threshold=195.05000000000004 7.0550000000000006 1.0850000000000002 0.00049306750000000009 154.00000000000003 66.750000000000014
decision_type=2 2 2 2 2 2
left_child=1 2 -1 -3 5 -2
right_child=4 3 -4 -5 -6 -7
leaf_value=-0.051404523337381741 0.1043718270000385 -0.050959954510517214 0.037944962118403348 0.091215950098947757 -0.044368298918801154 0.0049933434891619418
leaf_weight=23.250873409211636 31.079994313418865 93.050839856266975 59.089295357465744 6.4235777556896201 3.496035009622573 3.7075994163751593
leaf_count=141 279 541 319 30 17 24
internal_value=0 -0.0170998 0.0127148 -0.0417789 0.0811646 0.0937802
internal_weight=0 181.815 82.3402 99.4744 38.2836 34.7876
internal_count=1351 1031 460 571 320 303
is_linear=0
shrinkage=0.1


Tree=19
num_leaves=7
num_cat=0
split_feature=137 174 138 191 137 137
split_gain=27.634 15.4604 14.2362 13.8637 11.9534 8.24034
threshold=112.05000000000003 13.65 45.650000000000013 31.050000000000004 66.050000000000011 81.250000000000014
decision_type=2 2 2 2 2 2
left_child=2 -2 4 -3 -1 -4
right_child=1 3 5 -5 -6 -7
leaf_value=-0.058440847882245898 -0.021936902466596842 0.082347141187436343 -0.10946576950774545 -0.012910390046639559 0.076364382628896083 -0.037924629937304673
leaf_weight=10.856906883418562 34.907648019492626 59.365371219813824 23.786588758230209 20.57326440513134 16.688850358128548 49.825130589306355
leaf_count=75 190 388 196 103 93 306
internal_value=0 0.0335857 -0.0380938 0.0578314 0.0232321 -0.0610421
internal_weight=0 114.846 101.157 79.9386 27.5458 73.6117
internal_count=1351 681 670 491 168 502
is_linear=0
shrinkage=0.1


Tree=20
num_leaves=7
num_cat=0
split_feature=135 3 127 161 100 68
split_gain=24.7734 14.5444 11.2645 9.98522 5.43317 6.49319
threshold=22.060000000000006 20.750000000000004 0.30500000000000005 2.9600000000000004 3.3500000000000001 42.500000000000007
decision_type=2 2 2 2 2 2
left_child=1 3 -3 -1 -2 -6
right_child=4 2 -4 -5 5 -7
leaf_value=-0.068607942980784695 0.10248209080691205 -0.020781018857389894 0.04481331472688721 0.038927645276728685 0.090251197101519423 -0.049669709390759174
leaf_weight=56.993934497237206 23.946544997394085 61.746610946953297 45.452417246997356 10.17662091553211 6.8735175281763059 6.4091071337461472
leaf_count=371 215 347 251 67 55 45
internal_value=0 -0.0158306 0.007031 -0.0523159 0.0740306 0.0227368
internal_weight=0 174.37 107.199 67.1706 37.2292 13.2826
internal_count=1351 1036 598 438 315 100
is_linear=0
shrinkage=0.1


Tree=21
num_leaves=7
num_cat=0
split_feature=68 141 137 140 150 184
split_gain=22.3839 16.8683 13.5889 10.7359 9.47324 8.56773
threshold=42.500000000000007 95.350000000000009 93.550000000000011 253.50000000000003 0.72500000000000009 5.6300000000000008
decision_type=2 2 2 2 2 2
left_child=4 3 -3 -2 -1 -6
right_child=1 2 -4 -5 5 -7
leaf_value=-0.050714946107290597 -0.0026529751920966282 -0.079358670524869473 -0.010248111579992752 0.20015022012713457 0.042299463007196544 0.13750315510076197
leaf_weight=8.6815623641014081 5.1903959512710554 42.224303260445595 87.219808220863342 5.2510776668787003 47.906576603651047 11.776441380381582
leaf_count=56 35 343 480 27 319 91
internal_value=0 -0.0229292 -0.0327918 0.0993379 0.0468874 0.0610847
internal_weight=0 139.886 129.444 10.4415 68.3646 59.683
internal_count=1351 885 823 62 466 410
is_linear=0
shrinkage=0.1


Tree=22
num_leaves=7
num_cat=0
split_feature=137 186 145 68 132 96
split_gain=20.3394 10.6653 10.4727 7.52316 5.68158 4.36678
threshold=195.05000000000004 2780.0000000000005 96.40000000000002 42.500000000000007 154.00000000000003 173.50000000000003
decision_type=2 2 2 2 2 2
left_child=1 3 -3 -1 5 -2
right_child=4 2 -4 -5 -6 -7
leaf_value=0.017510405892477845 0.096544408366257828 0.053495460974659237 -0.016339895402189358 -0.056429723189848159 -0.049903790715727953 -0.066378567259417487
leaf_weight=17.608746014535427 27.388459876179699 34.125520437955856 57.920323498547077 62.968870230019093 3.3967187106609336 1.7502461001276959
leaf_count=103 293 172 309 447 17 10
internal_value=0 -0.0137052 0.0095512 -0.0402715 0.0724907 0.0867583
internal_weight=0 172.623 92.0458 80.5776 32.5354 29.1387
internal_count=1351 1031 481 550 320 303
is_linear=0
shrinkage=0.1


Tree=23
num_leaves=7
num_cat=0
split_feature=137 90 154 95 106 3
split_gain=17.927 12.2963 12.1852 11.5866 12.474 4.51065
threshold=112.05000000000003 125.50000000000001 1.1950000000000001 266.50000000000006 0.20500000000000004 28.750000000000004
decision_type=2 2 2 2 2 2
left_child=3 2 -2 -1 -5 -3
right_child=1 5 -4 4 -6 -7
leaf_value=-0.077224506330161813 -0.043465662574996761 0.00076850394194017324 0.037861367503282582 0.090240568403235522 -0.027060455459515714 0.10241732338926604
leaf_weight=35.257747925817966 29.481158372014761 5.3571687713265446 49.116497557610273 11.198321431875227 47.603912100195885 23.583369538187981
leaf_count=256 154 28 310 71 343 189
internal_value=0 0.0278753 0.00735645 -0.0318988 -0.0047216 0.0836012
internal_weight=0 107.538 78.5977 94.06 58.8022 28.9405
internal_count=1351 681 464 670 414 217
is_linear=0
shrinkage=0.1


Tree=24
num_leaves=7
num_cat=0
split_feature=65 106 180 202 94 134
split_gain=16.4313 10.1287 8.20247 7.21344 5.97069 4.72932
threshold=1.5000000000000002 0.46500000000000002 1.5650000000000002 148.65000000000001 3.1150000000000007 44.500000000000007
decision_type=2 2 2 2 2 2
left_child=1 2 -1 -3 5 -2
right_child=4 3 -4 -5 -6 -7
leaf_value=-0.0067250897899516623 0.11736150850175242 -0.077406462556433644 0.068881880000912624 0.0093001522939891168 -0.068274100087105785 0.021735340972103522
leaf_weight=108.63181066140532 16.886699523776777 32.286400087177753 16.532761361449957 13.65192013978958 2.7149362340569487 7.4550820440053931
leaf_count=698 173 222 109 85 16 48
internal_value=0 -0.0114783 0.0032617 -0.051639 0.072386 0.0880744
internal_weight=0 171.103 125.165 45.9383 27.0567 24.3418
internal_count=1351 1114 807 307 237 221
is_linear=0
shrinkage=0.1


Tree=25
num_leaves=7
num_cat=0
split_feature=139 92 110 180 195 200
split_gain=15.0099 10.1616 10.7247 7.50728 6.01039 2.5889
threshold=26.541315880000003 7.0550000000000006 5.7950000000000008 1.675 1.3500000000000003 7.4400000000000004
decision_type=2 2 2 2 2 2
left_child=4 2 -2 -3 5 -1
right_child=1 3 -4 -5 -6 -7
leaf_value=0.11244423367079839 0.0071382924714061893 -0.039838828137318746 0.15363694889624849 0.060121935573352117 -0.061073386532858265 -0.024760482322447167
leaf_weight=16.569787647575147 73.383742719888687 88.108253464102745 5.3622674196958533 8.2135618403553945 2.6177773997187606 1.4997075125575055
leaf_count=221 448 564 30 45 21 22
internal_value=0 -0.00953138 0.0171142 -0.031315 0.0805407 0.101057
internal_weight=0 175.068 78.746 96.3218 20.6873 18.0695
internal_count=1351 1087 478 609 264 243
is_linear=0
shrinkage=0.1


Tree=26
num_leaves=7
num_cat=0
split_feature=135 132 142 145 121 182
split_gain=13.7818 9.90649 11.6254 9.39513 10.3377 8.59654
threshold=15.365 13.500000000000002 9.2950000000000017 63.500000000000007 0.57500000000000007 14.450000000000001
decision_type=2 2 2 2 2 2
left_child=3 -2 -3 5 -5 -1
right_child=1 2 -4 4 -6 -7
leaf_value=-0.070160897139774761 0.080840033447698537 -0.091501212521914788 0.026071628944320548 -0.052293068258352761 0.1472765083428122 0.049481299877598736
leaf_weight=7.9642672166228285 25.990798804908991 9.9869832843542081 53.258453790098429 69.215852253139019 2.6967158839106551 24.419463902711868
leaf_count=69 204 55 360 500 19 144
internal_value=0 0.0288651 0.00750589 -0.0246684 -0.0448092 0.0200572
internal_weight=0 89.2362 63.2454 104.296 71.9126 32.3837
internal_count=1351 619 415 732 519 213
is_linear=0
shrinkage=0.1


Tree=27
num_leaves=7
num_cat=0
split_feature=68 141 154 140 150 184
split_gain=12.8299 12.92 10.6809 8.19832 6.98617 7.46554
threshold=42.500000000000007 95.350000000000009 1.2850000000000004 253.50000000000003 0.72500000000000009 5.6300000000000008
decision_type=2 2 2 2 2 2
left_child=4 3 -3 -2 -1 -6
right_child=1 2 -4 -5 5 -7
leaf_value=-0.049592687885672247 0.00027321006932728677 -0.052744398773411839 0.0080013565798205868 0.18155873376517001 0.03247293228201989 0.12784422606387966
leaf_weight=8.0387658737599832 4.9693104699254018 68.815856911242008 49.958879671990871 5.0091925822198391 43.813126653432846 10.099845785647629
leaf_count=56 35 478 345 27 319 91
internal_value=0 -0.0180119 -0.0271936 0.0912783 0.0373724 0.0503394
internal_weight=0 128.753 118.775 9.9785 61.9517 53.913
internal_count=1351 885 823 62 466 410
is_linear=0
shrinkage=0.1


Tree=28
num_leaves=7
num_cat=0
split_feature=139 127 148 154 195 200
split_gain=11.6588 8.22607 12.7524 9.14021 5.34976 2.64092
threshold=26.541315880000003 0.30500000000000005 382.50000000000006 1.2850000000000004 1.3500000000000003 7.4400000000000004
decision_type=2 2 2 2 2 2
left_child=4 3 -3 -2 5 -1
right_child=1 2 -4 -5 -6 -7
leaf_value=0.111318588945289 -0.053389619812343282 -0.066662741934419706 0.038013807483133683 0.0086678839450581215 -0.055050187518529796 -0.031147210621066596
leaf_weight=14.175607528537514 56.25344680249691 14.527756609022616 58.516970340162516 41.055496629327536 2.6654311418533316 1.4326720759272564
leaf_count=221 382 110 354 241 21 22
internal_value=0 -0.00816826 0.0171948 -0.027207 0.0758824 0.0982418
internal_weight=0 170.354 73.0447 97.3089 18.2737 15.6083
internal_count=1351 1087 464 623 264 243
is_linear=0
shrinkage=0.1


Tree=29
num_leaves=7
num_cat=0
split_feature=137 180 95 153 191 159
split_gain=10.6614 9.66617 9.5792 9.50206 8.17114 7.01472
threshold=112.05000000000003 1.1950000000000001 266.50000000000006 114.90000000000002 31.050000000000004 32.550000000000004
decision_type=2 2 2 2 2 2
left_child=2 5 -1 -4 -3 -2
right_child=1 4 3 -5 -6 -7
leaf_value=-0.069389715364399182 -0.0041756251962804282 0.065342483359465672 0.026479705117342357 -0.063574558996045583 -0.010366458390582964 -0.13785025970816711
leaf_weight=31.646674316376448 25.28437048941851 48.626531109213829 39.08131355419755 16.733657781034708 20.168388683348894 4.6471814736723891
leaf_count=256 154 391 271 143 109 27
internal_value=0 0.0225077 -0.0254389 -0.000519095 0.0431471 -0.02493
internal_weight=0 98.7265 87.4616 55.815 68.7949 29.9316
internal_count=1351 681 670 414 500 181
is_linear=0
shrinkage=0.1


Tree=30
num_leaves=7
num_cat=0
split_feature=3 137 138 152 16 183
split_gain=9.91109 8.74371 10.429 8.83151 3.67385 5.16571
threshold=158.75000000000003 86.700000000000017 40.250000000000007 555.70000000000016 1750.0000000000002 4.9500000000000011
decision_type=2 2 2 2 2 2
left_child=1 2 -1 -3 -2 -6
right_child=4 3 -4 -5 5 -7
leaf_value=0.037992575846061249 0.12652885667129879 0.043088070069213821 -0.076310624018518972 -0.012794697389633267 -0.092150581746330368 0.084084555863783661
leaf_weight=10.763051748275755 7.5758071206510049 42.655939947813749 30.895598456263542 83.911653570830822 2.430704977363348 5.2674221694469452
leaf_count=73 97 253 317 544 17 50
internal_value=0 -0.00704057 -0.0467789 0.00603897 0.0770906 0.0284378
internal_weight=0 168.226 41.6587 126.568 15.2739 7.69813
internal_count=1351 1187 390 797 164 67
is_linear=0
shrinkage=0.1


Tree=31
num_leaves=7
num_cat=0
split_feature=65 106 119 197 98 134
split_gain=9.46539 7.39793 8.4665 8.35024 5.22187 5.07016
threshold=1.5000000000000002 0.24500000000000002 10.850000000000003 -5.4499999999999993 94.200000000000017 72.500000000000014
decision_type=2 2 2 2 2 2
left_child=1 3 -3 -1 5 -2
right_child=4 2 -4 -5 -6 -7
leaf_value=0.080560324273203671 0.099115658465321832 -0.070353944030518353 -0.0067798765812591812 -0.0057329155412637759 -0.10239652211699607 -0.023354026182175022
leaf_weight=16.778777934610844 16.716325946152217 28.378027275204659 80.009258758276701 33.808648053556681 1.8164826631546009 4.2372214682400218
leaf_count=116 201 222 555 221 10 26
internal_value=0 -0.0086874 -0.0234249 0.0228887 0.0602499 0.0743499
internal_weight=0 158.975 108.387 50.5874 22.77 20.9535
internal_count=1351 1114 777 337 237 227
is_linear=0
shrinkage=0.1


Tree=32
num_leaves=7
num_cat=0
split_feature=68 141 202 194 101 205
split_gain=8.84357 10.1963 8.29789 7.17618 6.83535 5.9832
threshold=42.500000000000007 95.350000000000009 147.05000000000004 4.7500000000000009 13.950000000000001 104.45000000000002
decision_type=2 2 2 2 2 2
left_child=4 3 -3 -2 5 -1
right_child=1 2 -4 -5 -6 -7
leaf_value=0.039411848036138897 0.0022773274955639826 -0.052353369016734624 0.0020409872710276762 0.17722955636132445 0.16682461778677971 -0.045443200799903112
leaf_weight=44.01710899733007 4.9775418341159803 53.199515614658594 59.313922774046659 4.4321526773273945 3.5392632670700541 10.243300411850212
leaf_count=368 34 410 413 28 30 68
internal_value=0 -0.0153151 -0.0236782 0.0846833 0.0321757 0.0233929
internal_weight=0 121.923 112.513 9.40969 57.7997 54.2604
internal_count=1351 885 823 62 466 436
is_linear=0
shrinkage=0.1


Tree=33
num_leaves=6
num_cat=0
split_feature=137 146 92 193 192
split_gain=8.12035 6.76101 7.02694 5.28511 5.31421
threshold=195.05000000000004 152.60000000000002 7.3050000000000006 75.15000000000002 247.85000000000005
decision_type=2 2 2 2 2
left_child=1 2 -1 4 -2
right_child=3 -3 -4 -5 -6
leaf_value=0.010148478552959864 -0.023944269366782379 0.13537609063771316 -0.032825595931768412 -0.12126777656108297 0.095297825004180645
leaf_weight=76.274487841874361 4.8245939817279639 3.2093610242009154 75.925794217735529 1.5768602043390263 16.586960328742862
leaf_count=488 67 17 526 9 244
internal_value=0 -0.00826055 -0.0112893 0.0554174 0.0684294
internal_weight=0 155.41 152.2 22.9884 21.4116
internal_count=1351 1031 1014 320 311
is_linear=0
shrinkage=0.1


Tree=34
num_leaves=7
num_cat=0
split_feature=193 159 38 141 17 154
split_gain=7.7577 10.0356 8.07386 7.6091 7.05899 7.05798
threshold=70.450000000000017 31.650000000000002 2.0300000000000002 138.55000000000004 675.00000000000011 1.635
decision_type=2 2 2 2 2 2
left_child=1 3 -2 -1 -4 -3
right_child=2 5 4 -5 -6 -7
leaf_value=0.065109835452314135 0.10022172770285716 -0.054955185788042128 0.080199643545020988 0.0074478470326953625 -0.081211432264499867 0.10751330288869404
leaf_weight=31.73189047537744 3.3869158700108555 28.945460155606273 3.0458517894148853 82.085842452943325 24.529197692871094 2.9460255503654471
leaf_count=274 30 208 25 604 188 22
internal_value=0 0.00963189 -0.0454859 0.0235238 -0.0633825 -0.0399469
internal_weight=0 145.709 30.962 113.818 27.575 31.8915
internal_count=1351 1108 243 878 213 230
is_linear=0
shrinkage=0.1


Tree=35
num_leaves=7
num_cat=0
split_feature=135 3 166 162 145 99
split_gain=7.33067 6.22049 8.16567 6.99652 4.45495 2.19901
threshold=25.975000000000005 20.750000000000004 124.12000000000002 8.0150000000000023 3632.6150000000002 22.350000000000005
decision_type=2 2 2 2 2 2
left_child=1 2 -1 -3 5 -2
right_child=4 3 -4 -5 -6 -7
leaf_value=-0.045005088749666085 0.11253880586263967 0.064604972212300937 0.074596588338672165 -0.0030690558929064109 -0.11405563964072184 -0.01120159336050989
leaf_weight=51.901073612272739 9.4440933652222139 18.550788544118404 6.4138797968626013 86.566379342228174 1.1372926756739605 1.6937318611890066
leaf_count=406 176 115 49 559 8 38
internal_value=0 -0.00565717 -0.0318505 0.00887387 0.074471 0.0937216
internal_weight=0 163.432 58.315 105.117 12.2751 11.1378
internal_count=1351 1129 455 674 222 214
is_linear=0
shrinkage=0.1


Tree=36
num_leaves=7
num_cat=0
split_feature=137 138 95 152 138 139
split_gain=6.92062 10.2541 7.77229 7.72483 8.19033 7.81332
threshold=92.65000000000002 45.650000000000013 293.50000000000006 555.70000000000016 70.050000000000011 20.492245905000001
decision_type=2 2 2 2 2 2
left_child=1 2 -1 4 -2 -5
right_child=3 -3 -4 5 -6 -7
leaf_value=-0.054904118458238206 0.0946767165331589 -0.069044244746578942 0.071737658720454761 0.087164873864839898 0.00034427498864550253 -0.013561675607205857
leaf_weight=7.8775638192892101 19.832572026178241 29.604536198079586 12.593278199434279 8.5406085699796659 17.174569737166166 78.336885780096054
leaf_count=63 111 324 83 192 105 473
internal_value=0 -0.0314151 0.0230035 0.012638 0.0508982 -0.00365962
internal_weight=0 50.0754 20.4708 123.885 37.0071 86.8775
internal_count=1351 470 146 881 216 665
is_linear=0
shrinkage=0.1


Tree=37
num_leaves=7
num_cat=0
split_feature=127 148 103 143 154 156
split_gain=6.44389 10.0835 8.60808 7.87494 8.23672 6.4983
threshold=0.30500000000000005 382.50000000000006 89.950000000000017 6.5300000000000002 1.2850000000000004 53.615000000000009
decision_type=2 2 2 2 2 2
left_child=3 -2 -3 4 -1 -5
right_child=1 2 -4 5 -6 -7
leaf_value=-0.070982652146333342 -0.057158446888926018 -0.030965970443380082 0.058829726707827934 0.059762147414506396 0.00065157555705669672 -0.0307965091045398
leaf_weight=34.205964609980583 13.272396648302673 13.720041478052734 48.112098138779402 19.423022864386439 30.243281826376915 13.384209955111144
leaf_count=269 113 110 381 147 232 99
internal_value=0 0.0219286 0.0389048 -0.0170657 -0.0373678 0.0228174
internal_weight=0 75.1045 61.8321 97.2565 64.4492 32.8072
internal_count=1351 604 491 747 501 246
is_linear=0
shrinkage=0.1


Tree=38
num_leaves=7
num_cat=0
split_feature=193 193 38 194 104 42
split_gain=6.26058 8.62758 7.27729 7.34982 7.01225 6.59536
threshold=46.850000000000001 44.750000000000007 0.89000000000000012 4.7500000000000009 58.850000000000001 102.50000000000001
decision_type=2 2 2 2 2 2
left_child=1 4 -2 -4 -1 -3
right_child=2 5 3 -5 -6 -7
leaf_value=0.12717400660955017 0.14892179363526725 0.20375493683997195 -0.041812111000737728 0.0081716920161756818 -0.0052870276422698551 0.038090889243849207
leaf_weight=4.4922055304050437 2.7302426472306243 4.455193951725958 57.461112836375833 60.279633048921824 36.218452440574765 5.2175099849700928
leaf_count=49 20 33 452 423 330 44
internal_value=0 0.0295 -0.0124793 -0.0162219 0.00932935 0.114395
internal_weight=0 50.3834 120.471 117.741 40.7107 9.6727
internal_count=1351 456 895 875 379 77
is_linear=0
shrinkage=0.1


Tree=39
num_leaves=7
num_cat=0
split_feature=159 150 194 182 44 153
split_gain=6.14279 7.35717 7.85004 6.69905 5.76251 5.23244
threshold=32.45000000000001 0.99500000000000011 2.4500000000000006 14.450000000000001 24.250000000000004 33.550000000000004
decision_type=2 2 2 2 2 2
left_child=1 2 -1 -3 -2 -6
right_child=4 3 -4 -5 5 -7
leaf_value=0.11951444643718512 0.091791766593198043 -0.032976931273494457 -0.044225076378580641 0.032899083926761961 0.041912023898655407 -0.08284032910040641
leaf_weight=3.2021766602993003 2.7609675712883499 18.721115903928876 34.191033191978931 87.993324944749475 4.0754424817860153 19.207204040139914
leaf_count=28 25 149 289 678 31 151
internal_value=0 0.00796724 -0.0302032 0.0213423 -0.0448051 -0.0610034
internal_weight=0 144.108 37.3932 106.714 26.0436 23.2826
internal_count=1351 1144 317 827 207 182
is_linear=0
shrinkage=0.1


Tree=40
num_leaves=7
num_cat=0
split_feature=154 92 135 96 182 101
split_gain=5.50908 8.18931 8.31807 7.90166 8.68208 7.50326
threshold=1.2850000000000004 9.2250000000000032 15.995000000000003 210.00000000000003 18.750000000000004 8.8500000000000032
decision_type=2 2 2 2 2 2
left_child=3 5 -3 4 -1 -2
right_child=1 2 -4 -5 -6 -7
leaf_value=-0.067663962265348307 -0.0055221322165869436 -0.10637310511778314 0.024882165589060992 0.14957761976216749 -0.00062413850458893627 0.068009795965943531
leaf_weight=28.227926479652524 23.194429233670235 9.0882297009229678 10.300533307716249 2.7742985375225535 61.200306611135602 34.545380482450128
leaf_count=255 207 69 90 21 431 278
internal_value=0 0.0195893 -0.036642 -0.016629 -0.0217852 0.0384716
internal_weight=0 77.1286 19.3888 92.2025 89.4282 57.7398
internal_count=1351 644 159 707 686 485
is_linear=0
shrinkage=0.1


Tree=41
num_leaves=7
num_cat=0
split_feature=68 141 19 132 7 95
split_gain=5.39198 7.78074 7.69936 6.93325 10.0684 6.39044
threshold=42.500000000000007 95.350000000000009 529.50000000000011 16.500000000000004 1.0000000180025095e-35 252.50000000000003
decision_type=2 2 2 2 2 2
left_child=3 -2 -3 5 -5 -1
right_child=1 2 -4 4 -6 -7
leaf_value=0.0062016524561613112 0.077038611113931094 -0.033480045300849602 0.03422187536499504 0.074203033790808892 -0.056526928510976182 0.10323109684973691
leaf_weight=12.037056455388667 8.9610338956117612 84.498375734314322 20.965663779526949 9.032372999936344 16.940734714269638 15.564649377949534
leaf_count=117 62 665 158 84 134 131
internal_value=0 -0.0124202 -0.0200213 0.0260202 -0.0110645 0.0609167
internal_weight=0 114.425 105.464 53.5748 25.9731 27.6017
internal_count=1351 885 823 466 218 248
is_linear=0
shrinkage=0.1


Tree=42
num_leaves=7
num_cat=0
split_feature=137 138 184 136 8 94
split_gain=5.40622 8.69014 9.4418 6.54798 9.43296 8.14218
threshold=92.65000000000002 50.95000000000001 5.4450000000000012 8.4450000000000021 1.0000000180025095e-35 2.2950000000000004
decision_type=2 2 2 2 2 2
left_child=1 2 -1 4 -2 -5
right_child=3 -3 -4 5 -6 -7
leaf_value=-0.021758936832077216 0.013995366304034702 -0.076335969598139097 0.12415770075079875 0.057746368817343102 0.11055993552297694 -0.034627644788901367
leaf_weight=20.503352209925655 52.125335181131959 21.207206912338734 5.6582892350852481 12.262173091061412 12.552090109325944 43.014706831425428
leaf_count=182 352 249 39 139 89 301
internal_value=0 -0.0287633 0.00980019 0.0111365 0.0327359 -0.0141361
internal_weight=0 47.3688 26.1616 119.954 64.6774 55.2769
internal_count=1351 470 221 881 441 440
is_linear=0
shrinkage=0.1


Tree=43
num_leaves=6
num_cat=0
split_feature=38 166 193 159 107
split_gain=5.26244 8.92669 7.6376 7.02428 6.13612
threshold=1.1500000000000001 78.065000000000012 70.15000000000002 24.750000000000004 1.1950000000000001
decision_type=2 2 2 2 2
left_child=1 -1 3 -2 -4
right_child=2 -3 4 -5 -6
leaf_value=-0.029341449823661877 0.046812037277944751 0.19270958871684754 -0.014417103844680777 -0.0070856386545633298 -0.1115959206288618
leaf_weight=3.5728045068681231 31.964544822461903 3.6702806204557419 16.795301653444771 99.292023745365441 10.597328858450053
leaf_count=30 296 28 148 763 86
internal_value=0 0.0831782 -0.00398351 0.00603991 -0.0520125
internal_weight=0 7.24309 158.649 131.257 27.3926
internal_count=1351 58 1293 1059 234
is_linear=0
shrinkage=0.1


Tree=44
num_leaves=7
num_cat=0
split_feature=137 50 127 103 101 143
split_gain=5.13557 9.12844 5.94635 9.41004 6.20478 4.98823
threshold=74.65000000000002 2.2500000000000004 0.30500000000000005 89.950000000000017 14.400000000000002 6.5550000000000006
decision_type=2 2 2 2 2 2
left_child=1 5 4 -4 -2 -1
right_child=2 -3 3 -5 -6 -7
leaf_value=-0.097671749630604168 -0.016506041865426146 0.1163741246233639 -0.042773542598030699 0.051109480338443231 0.13046170858406198 0.014520686522327809
leaf_weight=14.940876346081501 76.993430741131306 3.0972408875823012 13.721650505438445 48.10330499522388 2.9839780163019887 5.3935515545308581
leaf_count=165 583 26 118 386 20 53
internal_value=0 -0.0435541 0.0069819 0.0302727 -0.0110226 -0.0679136
internal_weight=0 23.4317 141.802 61.825 79.9774 20.3344
internal_count=1351 244 1107 504 603 218
is_linear=0
shrinkage=0.1


Tree=45
num_leaves=7
num_cat=0
split_feature=139 209 149 161 135 94
split_gain=4.91893 5.03898 7.2047 3.9975 0.00576925 0.000637076
threshold=15.551347490000001 4.2400000000000011 685.50000000000011 2.8750000000000004 25.975000000000005 2.5150000000000001
decision_type=2 2 2 2 2 2
left_child=4 2 -2 -3 -1 -6
right_child=1 3 -4 -5 5 -7
leaf_value=0.11254514213764383 -0.0010766519227756897 -0.088215639917179789 0.11860548138614152 0.0089310521747891121 0.10313936312996122 0.10654432443939238
leaf_weight=1.0042579332366575 136.5108782723546 11.529949551448228 5.2222992498427621 6.6954936189576975 2.5492743086069827 0.70049082674086083
leaf_count=16 1044 89 40 46 101 15
internal_value=0 -0.00303144 0.00333315 -0.0525268 0.10592 0.103873
internal_weight=0 159.959 141.733 18.2254 4.25402 3.24977
internal_count=1351 1219 1084 135 132 116
is_linear=0
shrinkage=0.1


Tree=46
num_leaves=6
num_cat=0
split_feature=159 38 193 44 147
split_gain=4.59799 5.86549 7.54768 4.80469 4.58191
threshold=32.45000000000001 0.15000000000000005 70.15000000000002 24.250000000000004 3.4500000000000006
decision_type=2 2 2 2 2
left_child=1 -1 -3 -2 -5
right_child=3 2 -4 4 -6
leaf_value=0.15454488482950901 0.085388788343180297 0.015006134186435722 -0.046649924210579043 -0.014928795736261805 -0.10661666592689419
leaf_weight=2.6403898894786826 2.7298183962702778 111.82982721086591 24.140643116086721 12.401250923052432 9.7240256015211326
leaf_count=18 25 915 211 93 89
internal_value=0 0.0069261 0.00405952 -0.0397819 -0.0552255
internal_weight=0 138.611 135.97 24.8551 22.1253
internal_count=1351 1144 1126 207 182
is_linear=0
shrinkage=0.1


Tree=47
num_leaves=7
num_cat=0
split_feature=150 183 137 43 41 3
split_gain=4.53426 7.1549 7.26622 6.749 8.318 3.79734
threshold=0.99500000000000011 22.100000000000005 87.550000000000011 1.0000000180025095e-35 139.50000000000003 18.750000000000004
decision_type=2 2 2 2 2 2
left_child=1 2 -1 5 -5 -2
right_child=3 -3 -4 4 -6 -7
leaf_value=-0.080404314705503202 -0.14865423540489084 -0.13957495831701025 0.018471696730900905 0.11605460216555995 0.0089396527089334391 -0.022576257068733084
leaf_weight=10.93285529874265 3.7339221928268653 5.1553385742008677 23.212952892296016 7.7858518101274958 105.27275703847408 6.6319575011730194
leaf_count=143 33 39 176 57 843 60
internal_value=0 -0.0297656 -0.0131866 0.00923559 0.0163162 -0.0679912
internal_weight=0 39.3011 34.1458 123.424 113.059 10.3659
internal_count=1351 358 319 993 900 93
is_linear=0
shrinkage=0.1


Tree=48
num_leaves=4
num_cat=0
split_feature=53 47 184
split_gain=4.42686 4.83481 4.54476
threshold=0.00077601400000000011 4.5000000000000009 1.8500000000000003
decision_type=2 2 2
left_child=1 -1 -3
right_child=-2 2 -4
leaf_value=0.11826340497263006 0.10459745917590353 -0.13427561895949019 -0.003077772503370076
leaf_weight=3.2297634948045006 3.931567793712019 2.6870312467217436 151.90018992125988
leaf_count=25 37 18 1271
internal_value=0 -0.0028283 -0.00535825
internal_weight=0 157.817 154.587
internal_count=1351 1314 1289
is_linear=0
shrinkage=0.1


Tree=49
num_leaves=7
num_cat=0
split_feature=43 111 198 157 48 208
split_gain=4.39908 8.08339 6.38455 6.25498 5.93785 3.04501
threshold=23.500000000000004 27.450000000000003 34.250000000000007 61.210000000000008 98.500000000000014 6.4150000000000009
decision_type=2 2 2 2 2 2
left_child=2 -2 3 -1 -3 -4
right_child=1 4 5 -5 -6 -7
leaf_value=0.015980739805340698 0.13067202461315539 -0.11426231175213708 0.18812580076511298 -0.063133172039555568 -0.017968264719882464 0.035780030086303309
leaf_weight=84.610308677889407 3.2960357712581745 7.3528371043503276 2.9081953912973395 11.332015005871652 49.607977670617402 2.3903434751555324
leaf_count=719 33 61 16 100 388 34
internal_value=0 -0.0215879 0.0125378 0.00663638 -0.0303985 0.119398
internal_weight=0 60.2569 101.241 95.9423 56.9608 5.29854
internal_count=1351 482 869 819 449 50
is_linear=0
shrinkage=0.1


end of trees

feature_importances:
Scr_MAX=40
UREA_MAX=18
ventilation_time=15
egfrmin=13
PO2_MIN=11
Scr_MIN=10
ALT_MIN=9
P_MAX=8
DD_MAX=7
MIN_urine=6
UA_MIN=5
ALB_MIN=5
CPB_VIS=4
WBC_MIN_=4
PLT_MAX=4
LYM_MIN=4
BAS_P_MAX=4
UREA_MIN=4
CK_MIN=4
TNI_MAX=4
PT_MAX=4
FBG_MAX=4
intraoperative_hemorrhage=3
RBC_MIN=3
LYM_P_MIN=3
MONO_P_MAX=3
INR_MAX=3
FDP_MAX=3
LAC_MAX=3
intraoperative_urine=2
cadiac_arrest_time=2
CPBMIN_temperature=2
ICU_hypophysin=2
amiodarone=2
hydragogue=2
PLT_MIN=2
HB_MIN=2
NE_P_MAX=2
AST_MAX=2
AST_MIN=2
UA_MAX=2
GLU_MAX=2
GLU_MIN=2
LDH_MAX=2
MB_MAX=2
MB_MIN=2
A/G_MIN=2
ALP_MAX=2
BNP_MIN=2
FDP_MIN=2
PCO2_MIN=2
LAC_MIN=2
HCO3_MAX=2
K_MAX=2
NA_MAX=2
CL_MIN=2
PCT_MIN=2
aorta=1
arch=1
platelet_rich_plasma=1
CPB_time=1
Myocardial_vascularization_time=1
CVP=1
firsthour_urine=1
dobutamine=1
HR=1
LYM_P_MAX=1
NE_P_MIN=1
MONO_MAX=1
NE_MAX=1
NE_MIN=1
HCT_MAX=1
HCT_MIN=1
MCHC_MIN=1
MPV_MAX=1
EOS_MAX=1
ALT_MAX=1
CKMB_MAX=1
CKMB_MIN=1
LDH_MIN=1
TP_MAX=1
TP_MIN=1
TBIL_MAX=1
FBG_MIN=1
PO2_MAX=1
BE_MIN=1
PCT_MAX=1

parameters:
[boosting: gbdt]
[objective: binary]
[metric: binary_logloss]
[tree_learner: serial]
[device_type: cpu]
[data_sample_strategy: bagging]
[data: ]
[valid: ]
[num_iterations: 50]
[learning_rate: 0.1]
[num_leaves: 7]
[num_threads: 4]
[seed: 0]
[deterministic: 0]
[force_col_wise: 1]
[force_row_wise: 0]
[histogram_pool_size: -1]
[max_depth: 3]
[min_data_in_leaf: 20]
[min_sum_hessian_in_leaf: 0.001]
[bagging_fraction: 1]
[pos_bagging_fraction: 1]
[neg_bagging_fraction: 1]
[bagging_freq: 0]
[bagging_seed: 3]
[feature_fraction: 1]
[feature_fraction_bynode: 1]
[feature_fraction_seed: 2]
[extra_trees: 0]
[extra_seed: 6]
[early_stopping_round: 0]
[first_metric_only: 0]
[max_delta_step: 0]
[lambda_l1: 0]
[lambda_l2: 0]
[linear_lambda: 0]
[min_gain_to_split: 0]
[drop_rate: 0.1]
[max_drop: 50]
[skip_drop: 0.5]
[xgboost_dart_mode: 0]
[uniform_drop: 0]
[drop_seed: 4]
[top_rate: 0.2]
[other_rate: 0.1]
[min_data_per_group: 100]
[max_cat_threshold: 32]
[cat_l2: 10]
[cat_smooth: 10]
[max_cat_to_onehot: 4]
[top_k: 20]
[monotone_constraints: ]
[monotone_constraints_method: basic]
[monotone_penalty: 0]
[feature_contri: ]
[forcedsplits_filename: ]
[refit_decay_rate: 0.9]
[cegb_tradeoff: 1]
[cegb_penalty_split: 0]
[cegb_penalty_feature_lazy: ]
[cegb_penalty_feature_coupled: ]
[path_smooth: 0]
[interaction_constraints: ]
[verbosity: -1]
[saved_feature_importance_type: 0]
[use_quantized_grad: 0]
[num_grad_quant_bins: 4]
[quant_train_renew_leaf: 0]
[stochastic_rounding: 1]
[linear_tree: 0]
[max_bin: 255]
[max_bin_by_feature: ]
[min_data_in_bin: 3]
[bin_construct_sample_cnt: 200000]
[data_random_seed: 1]
[is_enable_sparse: 1]
[enable_bundle: 1]
[use_missing: 1]
[zero_as_missing: 0]
[feature_pre_filter: 1]
[pre_partition: 0]
[two_round: 0]
[header: 0]
[label_column: ]
[weight_column: ]
[group_column: ]
[ignore_column: ]
[categorical_feature: ]
[forcedbins_filename: ]
[precise_float_parser: 0]
[parser_config_file: ]
[objective_seed: 5]
[num_class: 1]
[is_unbalance: 0]
[scale_pos_weight: 1]
[sigmoid: 1]
[boost_from_average: 1]
[reg_sqrt: 0]
[alpha: 0.9]
[fair_c: 1]
[poisson_max_delta_step: 0.7]
[tweedie_variance_power: 1.5]
[lambdarank_truncation_level: 30]
[lambdarank_norm: 1]
[label_gain: ]
[lambdarank_position_bias_regularization: 0]
[eval_at: ]
[multi_error_top_k: 1]
[auc_mu_weights: ]
[num_machines: 1]
[local_listen_port: 12400]
[time_out: 120]
[machine_list_filename: ]
[machines: ]
[gpu_platform_id: -1]
[gpu_device_id: -1]
[gpu_use_dp: 0]
[num_gpu: 1]

end of parameters

pandas_categorical:[]
