tree
version=v4
num_class=1
num_tree_per_iteration=1
label_index=0
max_feature_idx=9
objective=binary sigmoid:1
feature_names=Scr_MAX UREA_MAX egfrmin DD_MAX MIN_urine ventilation_time P_MAX Scr_MIN WBC_MIN_ HR
feature_infos=[34.700000000000003:1269.0999999999999] [3.1499999999999999:88.379999999999995] [3.688935453:151.84464249999999] [0:59030] [0:600] [5.5:2949] [0:4.5800000000000001] [0:607.70000000000005] [0:22.469999999999999] [62:215.03]
tree_sizes=852 841 847 849 850 850 854 841 851 858 847 857 852 852 854 855 854 854 858 859 857 856 857 853 857 855 853 853 860 856 858 855 850 855 857 862 859 856 758 857 850 858 850 861 753 844 859 859 852 853

Tree=0
num_leaves=7
num_cat=0
split_feature=0 0 2 5 1 7
split_gain=507.949 57.9609 37.1191 33.7793 26.7938 15.744
threshold=146.75000000000003 112.05000000000003 31.469577485000006 165.00000000000003 15.740000000000002 78.15000000000002
decision_type=2 2 2 2 2 2
left_child=1 3 -2 -1 -3 -4
right_child=2 4 5 -5 -6 -7
leaf_value=-0.3929696899571139 -0.053307084066884586 -0.3350651245215146 -0.083909664498226622 -0.13294982444410391 -0.19516758339446533 -0.22144343105148137
leaf_weight=159.401740193367 75.157060861587524 27.754078030586243 12.526176810264586 5.1578375101089469 27.017244100570679 24.806742310523987
leaf_count=649 306 113 51 21 110 101
internal_value=-0.266556 -0.355162 -0.0937929 -0.38482 -0.266057 -0.175297
internal_weight=0 219.331 112.49 164.56 54.7713 37.3329
internal_count=1351 893 458 670 223 152
is_linear=0
shrinkage=1


Tree=1
num_leaves=7
num_cat=0
split_feature=0 0 0 5 5 7
split_gain=409.421 48.6716 31.056 22.2252 20.1242 16.934
threshold=146.75000000000003 98.550000000000011 195.05000000000004 130.25000000000003 110.25000000000001 78.15000000000002
decision_type=2 2 2 2 2 2
left_child=1 3 5 -1 -3 -2
right_child=2 4 -4 -5 -6 -7
leaf_value=-0.12869007899777457 0.1581462095710916 -0.040162513195307455 0.18727205435939642 0.078394806317845456 0.11343503434566893 0.015093011084731853
leaf_weight=123.66403672099113 13.977743983268736 77.422743618488312 79.856273144483566 5.4093113839626303 9.5861561298370344 20.282210424542427
leaf_count=514 56 318 320 22 39 82
internal_value=0 -0.0810449 0.153103 -0.120011 -0.02324 0.0734574
internal_weight=0 216.082 114.116 129.073 87.0089 34.26
internal_count=1351 893 458 536 357 138
is_linear=0
shrinkage=0.1


Tree=2
num_leaves=7
num_cat=0
split_feature=0 0 1 5 2 9
split_gain=335.16 54.2412 28.0808 24.6937 15.7952 6.13652
threshold=157.95000000000002 112.05000000000003 15.740000000000002 107.50000000000001 31.469577485000006 127.50000000000001
decision_type=2 2 2 2 2 2
left_child=1 3 -3 -1 -2 -6
right_child=4 2 -4 -5 5 -7
leaf_value=-0.11195368904725261 0.17216948208546534 -0.062696633636048202 0.069099519702044074 0.041887699240426936 0.058881371267637199 0.17152962186549556
leaf_weight=146.44297376275063 75.673168748617172 30.31201845407486 34.640653163194656 11.234165266156195 21.617086276412014 6.2294020801782599
leaf_count=624 304 125 140 46 87 25
internal_value=0 -0.0693127 0.00759308 -0.100993 0.148474 0.0840814
internal_weight=0 222.63 64.9527 157.677 103.52 27.8465
internal_count=1351 935 265 670 416 112
is_linear=0
shrinkage=0.1


Tree=3
num_leaves=7
num_cat=0
split_feature=0 0 1 5 2 1
split_gain=276.347 45.9544 22.8002 21.4183 13.7362 5.62541
threshold=157.95000000000002 112.05000000000003 15.740000000000002 165.00000000000003 31.469577485000006 21.030000000000005
decision_type=2 2 2 2 2 2
left_child=1 3 -3 -1 -2 -6
right_child=4 2 -4 -5 5 -7
leaf_value=-0.1006706009836605 0.15795929628096167 -0.057111915089314118 0.061882715277171353 0.1048678275734525 0.040144939039317894 0.13252740961291673
leaf_weight=148.07165721058846 74.297927334904671 29.966944620013237 34.802621945738792 5.2496406584978095 17.161682605743412 10.701555132865904
leaf_count=649 304 125 140 21 69 43
internal_value=0 -0.0637979 0.00682745 -0.0936331 0.135504 0.0756267
internal_weight=0 218.091 64.7696 153.321 102.161 27.8632
internal_count=1351 935 265 670 416 112
is_linear=0
shrinkage=0.1


Tree=4
num_leaves=7
num_cat=0
split_feature=0 0 7 5 1 5
split_gain=229.589 40.3157 22.4089 14.989 12.4349 10.3388
threshold=157.95000000000002 98.550000000000011 85.000000000000014 121.25000000000001 22.650000000000002 20.750000000000004
decision_type=2 2 2 2 2 2
left_child=1 3 -3 -1 5 -2
right_child=4 2 -4 -5 -6 -7
leaf_value=-0.10617220646902233 -0.02777970745521699 0.016887461444916315 -0.096962384232439344 0.054609520994265984 0.15136353089120735 0.10502393941395743
leaf_weight=112.05481733381748 7.3647807985544196 72.256720706820488 22.725919350981712 6.1146758496761313 63.837245687842369 28.729068353772163
leaf_count=511 30 304 95 25 268 118
internal_value=0 -0.0588618 -0.0103527 -0.0978526 0.124839 0.077926
internal_weight=0 213.152 94.9826 118.169 99.9311 36.0938
internal_count=1351 935 399 536 416 148
is_linear=0
shrinkage=0.1


Tree=5
num_leaves=7
num_cat=0
split_feature=2 1 5 3 0 2
split_gain=194.692 30.7698 20.8116 18.9153 14.2199 10.9214
threshold=53.319644530000012 16.195000000000004 25.250000000000004 2692.5000000000005 112.05000000000003 34.560307845000004
decision_type=2 2 2 2 2 2
left_child=1 3 -2 -1 -4 -3
right_child=2 5 4 -5 -6 -7
leaf_value=-0.10809368996024314 -0.10070979989752021 0.14001405754902649 -0.055363827503437463 0.070602287172830583 0.03938562316250465 0.07019156347208716
leaf_weight=10.543765217065813 92.198002815246582 70.579688176512718 65.194083228707314 13.518252700567244 20.922965943813324 32.818867295980453
leaf_count=44 425 307 299 57 86 133
internal_value=0 0.0941504 -0.0676924 -0.00770072 -0.0323435 0.117852
internal_weight=0 127.461 178.315 24.062 86.117 103.399
internal_count=1351 541 810 101 385 440
is_linear=0
shrinkage=0.1


Tree=6
num_leaves=7
num_cat=0
split_feature=1 3 2 2 0 0
split_gain=163.819 28.9387 26.2044 18.6861 12.1528 9.17082
threshold=17.220000000000002 2692.5000000000005 34.560307845000004 54.150680755000003 112.05000000000003 92.65000000000002
decision_type=2 2 2 2 2 2
left_child=1 5 -2 -3 -4 -1
right_child=2 3 4 -5 -6 -7
leaf_value=-0.1234286673285807 0.1342093329085999 0.077327748522780515 -0.062286914578822385 -0.040001789485497458 0.062347510169853931 -0.062197359101604101
leaf_weight=54.500819772481918 65.776625365018845 17.079204395413399 9.6970739811658841 66.136877238750458 40.492025583982468 44.376854106783867
leaf_count=268 299 72 44 307 164 197
internal_value=0 -0.0593759 0.0926861 -0.0159212 0.0382668 -0.0959477
internal_weight=0 182.094 115.966 83.2161 50.1891 98.8777
internal_count=1351 844 507 379 208 465
is_linear=0
shrinkage=0.1


Tree=7
num_leaves=7
num_cat=0
split_feature=0 1 3 7 5 8
split_gain=140.037 32.8684 19.0029 11.3753 5.35148 4.69342
threshold=176.95000000000002 15.365 2692.5000000000005 95.950000000000017 86.750000000000014 5.7600000000000007
decision_type=2 2 2 2 2 2
left_child=1 2 -1 -3 5 -2
right_child=4 3 -4 -5 -6 -7
leaf_value=-0.099923861160508054 0.15022161645304211 0.031701299687714533 -0.027039510689745128 -0.093385288584637183 0.14048292320998013 0.067500467705291986
leaf_weight=83.337550491094589 9.0864481776952726 58.340599343180656 62.676820993423462 8.3050763458013517 40.119742900133133 27.978867694735527
leaf_count=414 42 250 293 34 192 126
internal_value=0 -0.0420778 -0.0686382 0.0161136 0.115174 0.0877793
internal_weight=0 212.66 146.014 66.6457 77.1851 37.0653
internal_count=1351 991 707 284 360 168
is_linear=0
shrinkage=0.1


Tree=8
num_leaves=7
num_cat=0
split_feature=0 0 7 7 5 6
split_gain=118.5 30.9365 16.8616 16.1705 5.22152 4.49756
threshold=176.95000000000002 98.550000000000011 78.500000000000014 45.650000000000013 86.750000000000014 1.2850000000000004
decision_type=2 2 2 2 2 2
left_child=1 3 -3 -1 5 -2
right_child=4 2 -4 -5 -6 -7
leaf_value=-0.01653952559353819 0.036645910989131392 0.030906219473567077 -0.051440761270784133 -0.10325280567793585 0.1347318933781925 0.10935889605762261
leaf_weight=30.538129329681396 13.788325577974318 65.050873145461082 40.252642005681992 72.708872407674789 37.770063355565071 22.206675112247467
leaf_count=156 61 281 174 380 192 107
internal_value=0 -0.0387083 -0.000571206 -0.077605 0.108759 0.0815053
internal_weight=0 208.551 105.304 103.247 73.7651 35.995
internal_count=1351 991 455 536 360 168
is_linear=0
shrinkage=0.1


Tree=9
num_leaves=7
num_cat=0
split_feature=1 5 0 0 2 3
split_gain=102.749 25.2985 19.6972 16.0487 8.35507 6.31246
threshold=17.220000000000002 25.250000000000004 118.00000000000001 88.350000000000009 34.560307845000004 4079.5000000000005
decision_type=2 2 2 2 2 2
left_child=1 5 -2 -3 -4 -1
right_child=2 3 4 -5 -6 -7
leaf_value=-0.097061175779963149 -0.039519832012229653 -0.064725238918474884 0.11721058566692531 0.026448181494444972 0.055910969268627458 -0.020932169591081674
leaf_weight=74.609661459922791 12.740767478942869 31.32138891518116 56.418576464056969 50.330039441585541 36.697582721710205 12.753585547208784
leaf_count=391 57 164 299 227 151 62
internal_value=0 -0.0485449 0.0770959 -0.00852583 0.0930521 -0.0859476
internal_weight=0 169.015 105.857 81.6514 93.1162 87.3632
internal_count=1351 844 507 391 450 453
is_linear=0
shrinkage=0.1


Tree=10
num_leaves=7
num_cat=0
split_feature=0 5 0 5 8 7
split_gain=86.7931 23.8917 21.4928 5.24575 4.53451 1.49797
threshold=176.95000000000002 165.00000000000003 99.40000000000002 86.750000000000014 5.7600000000000007 54.300000000000004
decision_type=2 2 2 2 2 2
left_child=1 2 -1 4 -2 -3
right_child=3 5 -4 -5 -6 -7
leaf_value=-0.075170631355119616 0.1369077987693072 0.1419725903790523 -0.0077096580757940146 0.12646368307356909 0.050163556181535757 0.068716640596871922
leaf_weight=94.761986911296844 7.8705809712409964 6.1038783788681013 94.147247672080994 33.386140212416649 25.717265993356705 5.143608495593071
leaf_count=533 42 25 412 192 126 21
internal_value=0 -0.0331197 -0.0415499 0.0983926 0.0704902 0.108472
internal_weight=0 200.157 188.909 66.974 33.5878 11.2475
internal_count=1351 991 945 360 168 46
is_linear=0
shrinkage=0.1


Tree=11
num_leaves=7
num_cat=0
split_feature=1 5 2 4 9 3
split_gain=75.6643 21.0859 16.2707 14.6738 8.27645 5.72899
threshold=17.220000000000002 25.250000000000004 34.560307845000004 42.500000000000007 126.50000000000001 4079.5000000000005
decision_type=2 2 2 2 2 2
left_child=1 5 -2 -3 -4 -1
right_child=2 3 4 -5 -6 -7
leaf_value=-0.089303243483473238 0.10862075543923828 0.056182901648106215 0.0035916872351873757 -0.035631269630966751 0.098554596842958753 -0.015408901532013611
leaf_weight=69.266441106796265 50.238965302705765 25.832334563136101 36.4401975274086 53.369641780853271 12.267385601997374 12.364875644445418
leaf_count=391 299 126 156 265 52 62
internal_value=0 -0.0424448 0.0686925 -0.00568537 0.0275088 -0.0781103
internal_weight=0 160.833 98.9465 79.202 48.7076 81.6313
internal_count=1351 844 507 391 208 453
is_linear=0
shrinkage=0.1


Tree=12
num_leaves=7
num_cat=0
split_feature=2 1 3 7 7 9
split_gain=64.6346 16.5451 14.5926 10.1741 9.64275 7.91551
threshold=53.592651345000007 22.650000000000002 2780.0000000000005 37.650000000000013 63.150000000000013 126.50000000000001
decision_type=2 2 2 2 2 2
left_child=1 4 5 -4 -1 -2
right_child=2 -3 3 -5 -6 -7
leaf_value=0.10146701041780132 -0.081351499312605727 0.10449757041459351 0.11496129836166405 -0.020368346978073791 0.0024961358438850426 0.024213616733274695
leaf_weight=12.63099893927574 72.970763936638832 46.780190721154213 6.1023158580064765 61.978009536862373 44.620898678898811 7.8688971847295752
leaf_count=56 425 285 29 311 205 40
internal_value=0 0.0603797 -0.042349 -0.0082382 0.0243312 -0.0710758
internal_weight=0 104.032 148.92 68.0803 57.2519 80.8397
internal_count=1351 546 805 340 261 465
is_linear=0
shrinkage=0.1


Tree=13
num_leaves=7
num_cat=0
split_feature=0 3 0 7 5 8
split_gain=57.291 21.2742 11.0093 10.5614 3.09238 1.28404
threshold=195.05000000000004 2780.0000000000005 93.550000000000011 44.150000000000006 22.250000000000004 12.705000000000002
decision_type=2 2 2 2 2 2
left_child=1 2 -1 -3 -2 -6
right_child=4 3 -4 -5 5 -7
leaf_value=-0.09514622623223673 0.027350017101789411 0.07824959824858313 -0.02741980875318863 -0.006947640261131361 0.10987689714077048 0.045297216272203358
leaf_weight=43.291451692581177 5.8125874400138846 17.669404521584511 53.866293430328369 82.422805830836296 40.533988863229752 3.3319155126810065
leaf_count=292 31 86 258 395 270 19
internal_value=0 -0.0242638 -0.0575973 0.00809234 0.0958896 0.104972
internal_weight=0 197.25 97.1577 100.092 49.6785 43.8659
internal_count=1351 1031 550 481 320 289
is_linear=0
shrinkage=0.1


Tree=14
num_leaves=7
num_cat=0
split_feature=0 1 9 7 0 0
split_gain=50.5889 19.7758 14.8207 14.3592 13.1359 9.01723
threshold=112.05000000000003 22.060000000000006 125.50000000000001 45.650000000000013 66.050000000000011 81.250000000000014
decision_type=2 2 2 2 2 2
left_child=3 2 -2 4 -1 -5
right_child=1 -3 -4 5 -6 -7
leaf_value=-0.069681802498604187 -0.010015713842295732 0.094707859191690946 0.090774769173627604 -0.11581987272321659 0.065504452077981501 -0.046451784982167323
leaf_weight=12.13032276928425 63.356041520833969 46.619466468691826 18.953673720359802 28.734356194734573 17.64058230817318 53.872986763715744
leaf_count=75 286 308 87 196 93 306
internal_value=0 0.0426683 0.0131936 -0.0491219 0.0104221 -0.070581
internal_weight=0 128.929 82.3097 112.378 29.7709 82.6073
internal_count=1351 681 373 670 168 502
is_linear=0
shrinkage=0.1


Tree=15
num_leaves=7
num_cat=0
split_feature=0 3 4 6 5 8
split_gain=43.4088 16.8516 9.80475 9.45813 3.00535 1.28549
threshold=195.05000000000004 2780.0000000000005 42.500000000000007 1.3750000000000002 22.250000000000004 12.705000000000002
decision_type=2 2 2 2 2 2
left_child=1 2 -1 -3 -2 -6
right_child=4 3 -4 -5 5 -7
leaf_value=0.012410475823064039 0.02012206639507761 -0.013793351710556307 -0.068347415671310682 0.052152233110134817 0.1039924368623981 0.037364238579621151
leaf_weight=18.938530504703522 5.5773664861917487 66.374230720102787 72.914285741746426 32.348206222057343 35.817878104746342 3.150386542081832
leaf_count=103 31 330 447 151 270 19
internal_value=0 -0.0208682 -0.0516965 0.00781492 0.0887793 0.0986059
internal_weight=0 190.575 91.8528 98.7224 44.5456 38.9683
internal_count=1351 1031 550 481 320 289
is_linear=0
shrinkage=0.1


Tree=16
num_leaves=7
num_cat=0
split_feature=0 1 6 7 0 8
split_gain=38.3035 16.1194 12.8804 12.1524 10.5381 8.91926
threshold=112.05000000000003 15.740000000000002 1.1950000000000001 45.650000000000013 71.750000000000014 6.7200000000000015
decision_type=2 2 2 2 2 2
left_child=3 5 -3 4 -1 -2
right_child=1 2 -4 -5 -6 -7
leaf_value=-0.04019156884873748 0.05315545705797451 -0.0026075506614946353 0.083919875120482046 -0.06454404034775367 0.081165455451883584 -0.05429580159545791
leaf_weight=16.962979614734653 11.46162600815296 23.461142733693123 64.501772344112396 77.663695402443409 12.375799313187597 23.696691825985909
leaf_count=107 52 118 399 502 61 112
internal_value=0 0.037966 0.0608416 -0.0438309 0.0109997 -0.0192666
internal_weight=0 123.121 87.9629 107.002 29.3388 35.1583
internal_count=1351 681 517 670 168 164
is_linear=0
shrinkage=0.1


Tree=17
num_leaves=7
num_cat=0
split_feature=0 0 7 8 9 4
split_gain=33.7526 14.8459 15.3211 12.891 3.12171 2.3448
threshold=195.05000000000004 86.700000000000017 40.250000000000007 7.0550000000000006 92.015000000000015 35.000000000000007
decision_type=2 2 2 2 2 2
left_child=1 2 -1 -3 -2 -6
right_child=4 3 -4 -5 5 -7
leaf_value=0.033677689968039812 -0.02420041857350376 0.036384422077591551 -0.089658598337930204 -0.027538773484093917 0.11102660760401273 0.060379684735287688
leaf_weight=13.12882689386606 2.5502249747514716 56.429564341902733 43.255719900131226 71.548070982098579 22.14268559217453 15.568104043602942
leaf_count=78 17 273 320 360 183 120
internal_value=0 -0.0181886 -0.0609404 0.000647074 0.0828769 0.0901181
internal_weight=0 184.362 56.3845 127.978 40.261 37.7108
internal_count=1351 1031 398 633 320 303
is_linear=0
shrinkage=0.1


Tree=18
num_leaves=7
num_cat=0
split_feature=1 5 7 1 5 1
split_gain=29.7352 14.6115 10.1967 6.46312 3.06169 3.10356
threshold=22.060000000000006 20.750000000000004 33.850000000000001 16.195000000000004 153.25000000000003 25.975000000000005
decision_type=2 2 2 2 2 2
left_child=1 3 -3 -1 5 -2
right_child=4 2 -4 -5 -6 -7
leaf_value=-0.067813419066639027 0.021293396210616756 0.18338007505760759 -7.8972176964794939e-05 0.011917600640770848 0.11850301439514077 0.089105635887182899
leaf_weight=56.693117521703243 12.121596150100233 3.1172372549772254 107.70896212756634 12.388535119593142 12.676864229142664 15.227349057793615
leaf_count=382 70 16 582 56 116 129
internal_value=0 -0.0174188 0.00508123 -0.0535151 0.0778797 0.0590499
internal_weight=0 179.908 110.826 69.0817 40.0258 27.3489
internal_count=1351 1036 598 438 315 199
is_linear=0
shrinkage=0.1


Tree=19
num_leaves=7
num_cat=0
split_feature=2 0 7 8 9 2
split_gain=25.8807 12.5913 13.0382 12.3737 3.18134 1.21447
threshold=32.375227805000009 86.700000000000017 40.250000000000007 7.0550000000000006 92.015000000000015 15.551347490000001
decision_type=2 2 2 2 2 2
left_child=4 2 -2 -3 -1 -6
right_child=1 3 -4 -5 5 -7
leaf_value=-0.029964098720685672 0.029933927097296604 0.036826341088390134 -0.084678374215290772 -0.025747993589572839 0.11285127794296823 0.072652796141114556
leaf_weight=2.4713380038738242 13.218217492103575 56.441310808062553 39.845640942454338 71.805430993437767 12.056731179356573 19.954553082585335
leaf_count=17 78 274 320 367 127 168
internal_value=0 -0.0151602 -0.0561284 0.00179093 0.0793536 0.0877932
internal_weight=0 181.311 53.0639 128.247 34.4826 32.0113
internal_count=1351 1039 398 641 312 295
is_linear=0
shrinkage=0.1


Tree=20
num_leaves=7
num_cat=0
split_feature=0 3 8 1 9 7
split_gain=22.7068 11.974 9.63462 4.41888 3.11233 4.35855
threshold=195.05000000000004 1950.5000000000002 9.1300000000000008 17.595000000000002 119.50000000000001 179.55000000000004
decision_type=2 2 2 2 2 2
left_child=1 3 -3 -1 5 -2
right_child=4 2 -4 -5 -6 -7
leaf_value=-0.069006258233099069 0.069975314539514874 0.017760176674589446 -0.045607367913652851 0.012178910943146286 0.10415513299205469 -0.053777208691415314
leaf_weight=41.927297316491604 13.592134758830072 95.107446789741516 32.089521899819374 7.9805114716291419 17.28434295207262 3.5997208356857291
leaf_count=310 118 514 172 35 175 27
internal_value=0 -0.0145137 0.00177368 -0.0560243 0.0741899 0.0440634
internal_weight=0 177.105 127.197 49.9078 34.4762 17.1919
internal_count=1351 1031 686 345 320 145
is_linear=0
shrinkage=0.1


Tree=21
num_leaves=7
num_cat=0
split_feature=1 3 4 6 5 1
split_gain=20.3145 11.7091 7.86922 6.92042 3.09193 2.72292
threshold=22.060000000000006 2780.0000000000005 42.500000000000007 1.3750000000000002 153.25000000000003 25.975000000000005
decision_type=2 2 2 2 2 2
left_child=1 2 -1 -3 5 -2
right_child=4 3 -4 -5 -6 -7
leaf_value=0.016309611191283765 0.01506402768718494 -0.0082686121375302735 -0.058305407996252112 0.050839501972879564 0.11549201467907225 0.081620900707206942
leaf_weight=18.19519517570734 11.624119766056539 62.514881022274494 63.333114877343178 28.994949005544186 10.299677811563013 13.044915765523909
leaf_count=107 70 335 450 144 116 129
internal_value=0 -0.0140936 -0.0416531 0.0104598 0.0694728 0.0502591
internal_weight=0 173.038 81.5283 91.5098 34.9687 24.669
internal_count=1351 1036 557 479 315 199
is_linear=0
shrinkage=0.1


Tree=22
num_leaves=7
num_cat=0
split_feature=0 9 4 7 0 0
split_gain=18.3006 10.6728 12.5331 8.71905 8.62137 8.60452
threshold=112.05000000000003 122.50000000000001 35.000000000000007 45.650000000000013 81.250000000000014 66.050000000000011
decision_type=2 2 2 2 2 2
left_child=3 2 -2 5 -5 -1
right_child=1 -3 -4 4 -6 -7
leaf_value=-0.05662757499172049 0.080123711942191062 0.075650513598164382 -0.015072453883721186 -0.10531446611738433 -0.027741420140528196 0.058295041291177074
leaf_weight=10.443624161183836 18.11488176882267 32.755933165550232 58.466930657625198 20.662604346871376 46.725090123713017 17.319216333329678
leaf_count=75 131 245 305 196 306 93
internal_value=0 0.0278787 0.00744552 -0.0320972 -0.0515271 0.0150643
internal_weight=0 109.338 76.5818 95.1505 67.3877 27.7628
internal_count=1351 681 436 670 502 168
is_linear=0
shrinkage=0.1


Tree=23
num_leaves=7
num_cat=0
split_feature=5 0 4 7 1 2
split_gain=16.806 12.6045 9.37931 8.5222 2.14551 2.96143
threshold=158.75000000000003 86.700000000000017 42.500000000000007 40.250000000000007 14.190000000000001 44.094276325000003
decision_type=2 2 2 2 2 2
left_child=1 3 -3 -1 -2 -6
right_child=4 2 -4 -5 5 -7
leaf_value=0.018067724495142667 0.16701134878107807 0.044130454794767737 -0.012092212637399411 -0.080398730004123606 0.10603728728436519 0.013458174577112222
leaf_weight=11.880039706826208 3.0538791716098812 43.655768010765314 92.633516117930412 33.790198728442192 10.424472864717243 5.1682554483413687
leaf_count=73 14 277 520 317 127 23
internal_value=0 -0.00931877 0.00591686 -0.054785 0.0903634 0.0753517
internal_weight=0 181.96 136.289 45.6702 18.6466 15.5927
internal_count=1351 1187 797 390 164 150
is_linear=0
shrinkage=0.1


Tree=24
num_leaves=7
num_cat=0
split_feature=2 6 8 4 2 7
split_gain=14.8974 9.78942 13.0941 8.66253 1.39699 2.65192
threshold=26.541315880000003 1.2850000000000004 9.2250000000000032 35.000000000000007 15.551347490000001 187.85000000000002
decision_type=2 2 2 2 2 2
left_child=4 3 -3 -2 -1 -6
right_child=1 2 -4 -5 5 -7
leaf_value=0.1091473351419279 0.037010271029325074 0.041897708381084385 -0.054634716060811807 -0.042617903299524383 0.076149713864205715 -0.059880721550369581
leaf_weight=9.0870110243558901 16.278434805572033 56.361446183174849 18.718430884182453 84.995969355106354 10.209973797202109 1.6671477928757656
leaf_count=132 90 326 110 561 116 16
internal_value=0 -0.00953275 0.0178309 -0.0298188 0.079635 0.0570556
internal_weight=0 176.354 75.0799 101.274 20.9641 11.8771
internal_count=1351 1087 436 651 264 132
is_linear=0
shrinkage=0.1


Tree=25
num_leaves=7
num_cat=0
split_feature=5 0 7 7 1 1
split_gain=13.3421 10.3998 7.57106 6.69778 1.84225 2.78763
threshold=158.75000000000003 86.700000000000017 40.250000000000007 52.650000000000013 14.190000000000001 21.950000000000006
decision_type=2 2 2 2 2 2
left_child=1 2 -1 -3 -2 -6
right_child=4 3 -4 -5 5 -7
leaf_value=0.017176702930381101 0.15692032028067371 0.064493666500943778 -0.076461646184417836 -0.0028821902326696975 0.022502200131537389 0.11128820803071134
leaf_weight=11.903336532413958 2.9027082696557072 16.87559462338686 31.445423543453217 117.38303424790502 6.6824325919151288 7.5110142454504967
leaf_count=73 14 89 317 708 36 114
internal_value=0 -0.00816329 -0.0507491 0.0055866 0.0843319 0.0694868
internal_weight=0 177.607 43.3488 134.259 17.0962 14.1934
internal_count=1351 1187 390 797 164 150
is_linear=0
shrinkage=0.1


Tree=26
num_leaves=7
num_cat=0
split_feature=1 5 8 1 3 0
split_gain=12.3033 9.86852 7.9215 4.47631 0.791389 1.29726
threshold=25.975000000000005 20.750000000000004 6.8900000000000015 16.195000000000004 3242.0000000000005 361.4500000000001
decision_type=2 2 2 2 2 2
left_child=1 3 -3 -1 -2 -6
right_child=4 2 -4 -5 5 -7
leaf_value=-0.054358557491199971 0.121254244618243 0.039228788350174508 -0.013966284591644432 0.0079518742130499018 0.040389876981147058 0.10661099530495965
leaf_weight=47.933340407907963 4.1563420854508903 50.924378350377083 62.169737815856934 15.180485062301157 6.4883560948073846 5.4372838586568832
leaf_count=382 47 300 374 73 78 97
internal_value=0 -0.00769235 0.00998656 -0.0393713 0.0836783 0.0705822
internal_weight=0 176.208 113.094 63.1138 16.082 11.9256
internal_count=1351 1129 674 455 222 175
is_linear=0
shrinkage=0.1


Tree=27
num_leaves=7
num_cat=0
split_feature=2 6 8 9 2 0
split_gain=11.0427 7.21229 10.0476 7.56068 1.41315 2.47715
threshold=26.541315880000003 1.2850000000000004 9.2250000000000032 125.50000000000001 15.551347490000001 274.55000000000001
decision_type=2 2 2 2 2 2
left_child=4 3 -3 -2 -1 -6
right_child=1 2 -4 -5 5 -7
leaf_value=0.10769369991251265 -0.03902919238625497 0.036823594586805404 -0.048740421568273129 0.032421951398196945 0.10130396972668476 0.0055211285364134902
leaf_weight=7.389587931334975 79.532928857952356 55.569498416036367 18.224920641630888 18.19820898026228 5.1382939256727678 5.6901627629995346
leaf_count=132 548 326 110 103 58 74
internal_value=0 -0.00790615 0.015692 -0.0257245 0.0739793 0.0509718
internal_weight=0 171.526 73.7944 97.7311 18.218 10.8285
internal_count=1351 1087 436 651 264 132
is_linear=0
shrinkage=0.1


Tree=28
num_leaves=7
num_cat=0
split_feature=0 7 0 9 6 5
split_gain=9.83841 7.60085 9.1795 7.40739 7.99519 6.57563
threshold=112.05000000000003 59.250000000000007 74.65000000000002 125.50000000000001 1.1950000000000001 24.250000000000004
decision_type=2 2 2 2 2 2
left_child=1 2 -1 4 -2 -5
right_child=3 -3 -4 5 -6 -7
leaf_value=-0.045456657187711295 -0.035827905839757007 -0.061354154491362584 0.038568251287120964 -0.043542636716579569 0.031074570432345586 0.091568059100559221
leaf_weight=24.439273092895746 28.870925307273865 34.288515672087669 27.781824059784412 4.3559859916567829 46.847121581435204 20.813617937266827
leaf_count=219 154 265 186 23 310 194
internal_value=0 -0.0247738 -0.000755083 0.0211875 0.00556498 0.0681851
internal_weight=0 86.5096 52.2211 100.888 75.718 25.1696
internal_count=1351 670 405 681 464 217
is_linear=0
shrinkage=0.1


Tree=29
num_leaves=7
num_cat=0
split_feature=1 5 8 1 2 7
split_gain=9.07774 6.9059 5.88045 3.58323 0.953115 1.35289
threshold=25.975000000000005 20.750000000000004 6.8900000000000015 16.195000000000004 42.645887135000009 63.750000000000007
decision_type=2 2 2 2 2 2
left_child=1 3 -3 -1 5 -2
right_child=4 2 -4 -5 -6 -7
leaf_value=-0.04782193359391438 0.010872993923485098 0.033819672609182096 -0.01248330400235906 0.008516169845735078 -0.0045200354577037086 0.10052396211037283
leaf_weight=44.93818848952651 2.0025429278612128 50.069326084107161 60.654257122427225 15.077049575746058 1.2747579663991917 10.557755529880522
leaf_count=382 30 300 374 73 6 186
internal_value=0 -0.00635163 0.00845495 -0.0336687 0.0778688 0.0862305
internal_weight=0 170.739 110.724 60.0152 13.8351 12.5603
internal_count=1351 1129 674 455 222 216
is_linear=0
shrinkage=0.1


Tree=30
num_leaves=7
num_cat=0
split_feature=4 0 8 7 5 9
split_gain=8.28201 7.13917 7.37478 6.33003 4.54835 4.14734
threshold=42.500000000000007 94.450000000000017 7.5650000000000004 37.650000000000013 14.250000000000002 92.015000000000015
decision_type=2 2 2 2 2 2
left_child=4 3 -3 -2 -1 -6
right_child=1 2 -4 -5 5 -7
leaf_value=-0.066832650171176511 0.053612952191611878 0.030475012145411928 -0.028852508860716632 -0.06536891044479122 -0.044609847544863794 0.047778201727540437
leaf_weight=4.4174827598035327 5.1415751278400412 43.234031967818737 40.655370891094208 34.304867621511221 5.3909052796661845 49.236199084669352
leaf_count=31 35 254 241 355 35 400
internal_value=0 -0.0147748 0.00172308 -0.0498604 0.0307682 0.0386608
internal_weight=0 123.336 83.8894 39.4464 59.0446 54.6271
internal_count=1351 885 495 390 466 435
is_linear=0
shrinkage=0.1


Tree=31
num_leaves=7
num_cat=0
split_feature=5 4 0 5 1 2
split_gain=7.78698 6.01081 5.53756 3.34542 1.61588 3.00049
threshold=158.75000000000003 42.500000000000007 93.550000000000011 14.250000000000002 14.190000000000001 36.17567428000001
decision_type=2 2 2 2 2 2
left_child=1 3 -3 -1 -2 -6
right_child=4 2 -4 -5 5 -7
leaf_value=-0.061870565314317186 0.1427754534741332 -0.05180020866606129 -0.0042207183239041744 0.030310636214368709 0.10901972527623754 0.0071874387767257124
leaf_weight=4.3008920699357978 2.5720912367105475 35.235016644001007 79.999516647309065 46.532408595085144 5.4721961505711061 6.1401709839701653
leaf_count=31 14 373 458 325 118 32
internal_value=0 -0.00613309 -0.018769 0.0225114 0.0710595 0.0551747
internal_weight=0 166.068 115.235 50.8333 14.1845 11.6124
internal_count=1351 1187 831 356 164 150
is_linear=0
shrinkage=0.1


Tree=32
num_leaves=7
num_cat=0
split_feature=1 3 8 0 6 0
split_gain=7.02772 5.63176 4.7829 4.6244 1.01234 2.33603
threshold=25.975000000000005 3210.0000000000005 6.8900000000000015 71.750000000000014 1.6250000000000002 349.40000000000003
decision_type=2 2 2 2 2 2
left_child=1 2 -1 -3 -2 -6
right_child=4 3 -4 -5 5 -7
leaf_value=0.0051677618805845886 0.10168181238506913 -0.060995658681553933 -0.040477906033085154 0.024195072278001967 -0.018799941501690773 0.10464997785375091
leaf_weight=39.33178262040019 6.1376883182674629 7.0731457620859137 55.13509439677 64.273280577734113 3.0018046889454126 3.1323348972946405
leaf_count=277 93 50 425 377 48 81
internal_value=0 -0.00545692 -0.0214731 0.0157494 0.0729685 0.0442385
internal_weight=0 165.813 94.4669 71.3464 12.2718 6.13414
internal_count=1351 1129 702 427 222 129
is_linear=0
shrinkage=0.1


Tree=33
num_leaves=7
num_cat=0
split_feature=5 0 7 7 3 5
split_gain=6.2182 4.84945 7.68099 5.40089 1.61423 2.34501
threshold=158.75000000000003 86.700000000000017 45.650000000000013 78.500000000000014 9500.0000000000018 205.75000000000003
decision_type=2 2 2 2 2 2
left_child=1 2 -1 -3 5 -2
right_child=4 3 -4 -5 -6 -7
leaf_value=0.011233193715019442 0.12750608589921694 0.021677364590706523 -0.080266383771916403 -0.020165556106705992 0.12100839851569239 0.014051212058692853
leaf_weight=17.292167522013187 2.467924799770115 72.709381554275751 19.543083690106869 53.578949809074402 3.7932371012866488 6.9583317246288061
leaf_count=132 29 423 258 374 59 76
internal_value=0 -0.00538676 -0.0373123 0.00392513 0.0659225 0.0437553
internal_weight=0 163.124 36.8353 126.288 13.2195 9.42626
internal_count=1351 1187 390 797 164 105
is_linear=0
shrinkage=0.1


Tree=34
num_leaves=7
num_cat=0
split_feature=0 3 7 5 9 4
split_gain=5.9977 5.59222 6.68859 5.43135 3.43514 2.22847
threshold=195.05000000000004 1697.5000000000002 52.650000000000013 13.250000000000002 87.500000000000014 35.000000000000007
decision_type=2 2 2 2 2 2
left_child=1 4 -3 -2 -1 -5
right_child=3 2 -4 5 -6 -7
leaf_value=-0.13487842196520017 -0.12070539382178358 0.039398320688102569 -0.012312754879686565 0.09560440612768939 -0.031979052210175107 0.028957502352320776
leaf_weight=3.639990869909524 1.7363729104399706 35.600377481430769 84.108150981366634 10.459462810307743 29.843232240527868 9.6418848223984224
leaf_count=36 10 236 496 189 263 121
internal_value=0 -0.00703904 0.00306571 0.0489788 -0.0431653 0.0636363
internal_weight=0 153.192 119.709 21.8377 33.4832 20.1013
internal_count=1351 1031 732 320 299 310
is_linear=0
shrinkage=0.1


Tree=35
num_leaves=7
num_cat=0
split_feature=2 6 8 3 1 5
split_gain=5.52708 4.38947 5.87469 5.07351 0.00818446 0.000466832
threshold=15.551347490000001 1.2850000000000004 9.2250000000000032 1187.0000000000002 23.180000000000003 110.25000000000001
decision_type=2 2 2 2 2 2
left_child=4 3 -3 -2 -1 -6
right_child=1 2 -4 -5 5 -7
leaf_value=0.11500219877959672 -0.071320777511473199 0.030992982148291361 -0.033310449862794321 -0.0074422797874721105 0.10514489504067526 0.10297466794173016
leaf_weight=0.81969260983168979 14.777595244348047 56.621426364406943 18.966554723680019 78.390016354620457 1.9229280054569247 2.0455645211040974
leaf_count=10 148 398 140 533 45 77
internal_value=0 -0.00304741 0.0148579 -0.0175742 0.105905 0.104026
internal_weight=0 168.756 75.588 93.1676 4.78819 3.96849
internal_count=1351 1219 538 681 132 122
is_linear=0
shrinkage=0.1


Tree=36
num_leaves=7
num_cat=0
split_feature=2 9 6 3 1 5
split_gain=4.96034 4.37423 4.39888 4.03532 0.00601835 0.000343261
threshold=15.551347490000001 91.405000000000015 0.49500000000000005 1226.0000000000002 23.180000000000003 110.25000000000001
decision_type=2 2 2 2 2 2
left_child=4 3 -3 -2 -1 -6
right_child=1 2 -4 -5 5 -7
leaf_value=0.11347133812118587 -0.13977621123410519 0.12866358437140554 0.0010505101791656996 -0.025115051316152937 0.10463734164080077 0.10268455062737936
leaf_weight=0.75118160620331664 3.6985646449029472 2.7530094347894183 143.44424908608198 18.041634369641542 1.7479463759809735 1.8558663260191677
leaf_count=10 43 19 1032 125 45 77
internal_value=0 -0.00277 0.00345356 -0.0446219 0.105329 0.103632
internal_weight=0 167.937 146.197 21.7402 4.35499 3.60381
internal_count=1351 1219 1051 168 132 122
is_linear=0
shrinkage=0.1


Tree=37
num_leaves=7
num_cat=0
split_feature=0 2 1 7 0 1
split_gain=4.71352 6.72234 7.43472 6.16565 5.06551 3.4284
threshold=112.05000000000003 68.814711885000023 15.325000000000001 63.250000000000007 74.65000000000002 15.820000000000002
decision_type=2 2 2 2 2 2
left_child=3 2 -2 4 -1 -5
right_child=1 -3 -4 5 -6 -7
leaf_value=-0.037290443753106556 -0.03599486421605224 0.13030936389316763 0.02774191092394368 -0.04156339554171537 0.024152909390192077 -0.13591143956004112
leaf_weight=22.236663326621056 25.960969012230635 4.8129191249608985 62.029917255043983 17.816998481750492 33.831254858523607 4.9136230610311022
leaf_count=230 138 26 517 166 245 29
internal_value=0 0.0152314 0.00893691 -0.0180263 -0.000215664 -0.0619584
internal_weight=0 92.8038 87.9909 78.7985 56.0679 22.7306
internal_count=1351 681 655 670 475 195
is_linear=0
shrinkage=0.1


Tree=38
num_leaves=6
num_cat=0
split_feature=2 5 0 1 5
split_gain=4.35101 3.58578 3.28375 0.0045121 0.000233112
threshold=15.551347490000001 306.50000000000006 66.90000000000002 23.180000000000003 110.25000000000001
decision_type=2 2 2 2 2
left_child=3 2 -2 -1 -5
right_child=1 -3 -4 4 -6
leaf_value=0.11215276328868667 -0.053724787102979649 0.10165841994184524 -0.0004755490049970313 0.10406830248825756 0.10235723864851726
leaf_weight=0.68152006715536062 12.54875212907791 3.2401485219597808 150.15830773115158 1.5481017064303162 1.6393836624920366
leaf_count=10 136 35 1048 45 77
internal_value=0 -0.00250802 -0.00458239 0.104767 0.103188
internal_weight=0 165.947 162.707 3.86901 3.18749
internal_count=1351 1219 1184 132 122
is_linear=0
shrinkage=0.1


Tree=39
num_leaves=7
num_cat=0
split_feature=0 9 3 7 1 5
split_gain=3.9659 3.39734 3.87816 3.47634 0.00398021 0.000122775
threshold=361.4500000000001 91.405000000000015 1226.0000000000002 79.550000000000011 25.975000000000005 110.25000000000001
decision_type=2 2 2 2 2 2
left_child=1 2 -1 -3 -2 -6
right_child=4 3 -4 -5 5 -7
leaf_value=-0.13889578246446915 0.11138201646391657 0.013382940239567757 -0.021226118629933961 -0.020454334849677631 0.10359449276464552 0.102282535576323
leaf_weight=3.326759776100519 0.69298534095287267 100.72974963672459 17.719089355319738 43.462625151500106 1.4148375298827889 1.4385470636188982
leaf_count=43 11 747 126 307 45 72
internal_value=0 -0.00229438 -0.0398264 0.00318367 0.104584 0.102933
internal_weight=0 165.238 21.0458 144.192 3.54637 2.85338
internal_count=1351 1223 169 1054 128 117
is_linear=0
shrinkage=0.1


Tree=40
num_leaves=7
num_cat=0
split_feature=6 0 8 4 9 1
split_gain=3.78577 5.1291 4.97002 4.79917 3.84958 3.82585
threshold=1.2850000000000004 66.050000000000011 9.2250000000000032 35.000000000000007 118.50000000000001 16.965000000000003
decision_type=2 2 2 2 2 2
left_child=3 -2 -3 5 -5 -1
right_child=1 2 -4 4 -6 -7
leaf_value=0.001852956308875997 -0.1146916240849077 0.036353564093260897 -0.023607584255903386 -0.038406966248009322 0.013529577344774349 0.10271582253756156
leaf_weight=12.067292109131815 2.8759815953671923 55.52655425760895 18.405655270442367 54.851218799129128 19.290537660941482 5.4632452819496384
leaf_count=77 31 463 150 449 130 51
internal_value=0 0.0163293 0.021426 -0.0137681 -0.0248939 0.033286
internal_weight=0 76.8082 73.9322 91.6723 74.1418 17.5305
internal_count=1351 644 613 707 579 128
is_linear=0
shrinkage=0.1


Tree=41
num_leaves=7
num_cat=0
split_feature=1 9 7 4 7 7
split_gain=3.55822 3.23644 4.63374 4.62541 1.66955 3.09013
threshold=25.975000000000005 125.50000000000001 79.000000000000014 72.500000000000014 187.85000000000002 235.70000000000002
decision_type=2 2 2 2 2 2
left_child=1 2 -1 -3 -2 -6
right_child=4 3 -4 -5 5 -7
leaf_value=0.0017861406257516682 0.077302917217004205 0.010952544263099604 -0.039969858727155437 0.12871737749925122 -0.20000612627524253 0.10520067662114363
leaf_weight=90.052278326824307 7.9797900933772308 26.119842859916393 37.703227754682302 3.8233777694404116 0.64818719960749127 0.67948360927402973
leaf_count=700 181 169 235 25 20 21
internal_value=0 -0.00360138 -0.0105369 0.0259897 0.0600273 -0.0438055
internal_weight=0 157.699 127.756 29.9432 9.30746 1.32767
internal_count=1351 1129 935 194 222 41
is_linear=0
shrinkage=0.1


Tree=42
num_leaves=7
num_cat=0
split_feature=0 2 9 1 7 0
split_gain=3.65229 5.92503 7.4244 6.90452 5.8063 5.42611
threshold=112.05000000000003 62.42899043500001 101.43500000000002 15.325000000000001 52.650000000000013 66.90000000000002
decision_type=2 2 2 2 2 2
left_child=4 3 -3 -2 5 -1
right_child=1 2 -4 -5 -6 -7
leaf_value=-0.044026384663585251 -0.04450767792940305 0.20390378575968354 0.028698701862463621 0.022032274436016658 -0.041023450428685382 0.041157727958363768
leaf_weight=10.926784975454209 21.511864062398672 3.423833303153514 8.2380204498767835 56.690542188473046 42.074275491759181 23.690158454701304
leaf_count=121 116 18 43 504 385 164
internal_value=0 0.0136443 0.0801376 0.00372851 -0.0160653 0.0142695
internal_weight=0 89.8643 11.6619 78.2024 76.6912 34.6169
internal_count=1351 681 61 620 670 285
is_linear=0
shrinkage=0.1


Tree=43
num_leaves=7
num_cat=0
split_feature=2 7 0 1 1 5
split_gain=3.33393 2.82934 7.22792 6.00211 0.00364807 0.000119854
threshold=15.551347490000001 44.850000000000001 94.450000000000017 9.240000000000002 23.180000000000003 84.750000000000014
decision_type=2 2 2 2 2 2
left_child=4 3 -3 -2 -1 -6
right_child=1 2 -4 -5 5 -7
leaf_value=0.11112070049253951 -0.064459833984663484 -0.051447986312626516 0.0044004757202257194 0.055024249224020598 0.10354130926096944 0.10197800622988207
leaf_weight=0.60275381617248003 5.3683636784553554 29.526784202083945 107.69753387197852 19.387159358710051 0.68522929213941131 1.7249747961759565
leaf_count=10 50 359 686 124 23 99
internal_value=0 -0.00200305 -0.00761653 0.0291135 0.104163 0.102422
internal_weight=0 161.98 137.224 24.7555 3.01296 2.4102
internal_count=1351 1219 1045 174 132 122
is_linear=0
shrinkage=0.1


Tree=44
num_leaves=6
num_cat=0
split_feature=5 9 6 8 2
split_gain=3.20826 3.01179 3.74085 0.646844 0.0506531
threshold=306.50000000000006 77.000000000000014 0.49500000000000005 4.9650000000000007 49.484781735000006
decision_type=2 2 2 2 2
left_child=1 -1 -3 -2 -5
right_child=3 2 -4 4 -6
leaf_value=-0.10952373722665332 0.029646985237903978 0.10958555367857965 -0.0025180573042481087 0.11022845792171772 0.13948999918612406
leaf_weight=2.5685222130268803 1.0188836762681597 3.0351151898503295 154.5916156405583 1.1761313676834109 1.1902607828378675
leaf_count=26 29 21 1234 34 7
internal_value=0 -0.0021098 -0.000359493 0.0962638 0.124947
internal_weight=0 160.195 157.627 3.38528 2.36639
internal_count=1351 1281 1255 70 41
is_linear=0
shrinkage=0.1


Tree=45
num_leaves=7
num_cat=0
split_feature=4 9 6 7 8 5
split_gain=3.03054 3.69538 3.80786 3.58086 2.76982 2.52099
threshold=42.500000000000007 119.50000000000001 1.405 98.800000000000026 2.9150000000000005 11.250000000000002
decision_type=2 2 2 2 2 2
left_child=4 3 -3 -2 -1 -6
right_child=1 2 -4 -5 5 -7
leaf_value=0.16906515309141995 -0.012368621993916628 -0.0027154360762729618 0.077566139240212231 -0.076903389716985834 -0.14608519528216726 0.019272509301886905
leaf_weight=1.2139955479651678 73.751967223361135 18.904201049357656 8.5940085947513563 9.7326842602342349 0.93925462290644546 50.138032761402428
leaf_count=19 615 126 80 64 8 439
internal_value=0 -0.00941961 0.0223749 -0.0198921 0.0197799 0.0162318
internal_weight=0 110.983 27.4982 83.4847 52.2913 51.0773
internal_count=1351 885 206 679 466 447
is_linear=0
shrinkage=0.1


Tree=46
num_leaves=7
num_cat=0
split_feature=0 7 2 0 5 4
split_gain=2.95822 3.8957 5.30578 4.36703 3.57386 2.00768
threshold=195.05000000000004 85.000000000000014 68.814711885000023 98.550000000000011 13.250000000000002 35.000000000000007
decision_type=2 2 2 2 2 2
left_child=1 3 -3 -1 -2 -6
right_child=4 2 -4 -5 5 -7
leaf_value=-0.018725217557047664 -0.097092401277739201 -0.05648279779808027 0.064490990518640878 0.020316408059080596 0.089783726538712666 0.019241933115061796
leaf_weight=50.862042823806405 1.7594350352883363 23.930480688810352 4.2728227451443663 65.606032010167837 7.7339481897652176 8.4349131537601334
leaf_count=524 10 124 34 349 189 121
internal_value=0 -0.00480832 -0.0381552 0.00326678 0.0382557 0.0529837
internal_weight=0 144.671 28.2033 116.468 17.9283 16.1689
internal_count=1351 1031 158 873 320 310
is_linear=0
shrinkage=0.1


Tree=47
num_leaves=7
num_cat=0
split_feature=0 8 7 8 2 5
split_gain=2.75675 2.61502 3.68277 3.46942 0.00233833 0.000137382
threshold=361.4500000000001 7.3050000000000006 59.250000000000007 7.495000000000001 17.518150660000003 84.750000000000014
decision_type=2 2 2 2 2 2
left_child=1 2 -1 -3 5 -2
right_child=4 3 -4 -5 -6 -7
leaf_value=0.03686485199739372 0.10342874316352293 -0.099225794748305202 -0.0071599550339177392 -0.0092340952751659103 0.11086292601735002 0.10175423312551331
leaf_weight=32.827072188258171 0.75712836906313885 4.5382918510586014 45.114752928726375 76.462233329191804 0.37926326692104328 1.388445666991174
leaf_count=253 27 36 331 603 5 96
internal_value=0 -0.00169388 0.0113822 -0.0142761 0.103625 0.102345
internal_weight=0 158.942 77.9418 81.0005 2.52484 2.14557
internal_count=1351 1223 584 639 128 123
is_linear=0
shrinkage=0.1


Tree=48
num_leaves=7
num_cat=0
split_feature=0 1 0 2 9 1
split_gain=2.64692 4.48457 6.72909 4.47749 5.68172 5.24681
threshold=112.05000000000003 16.095000000000002 100.60000000000001 62.42899043500001 101.43500000000002 15.325000000000001
decision_type=2 2 2 2 2 2
left_child=1 -1 -3 5 -5 -2
right_child=3 2 -4 4 -6 -7
leaf_value=-0.0034505902842018399 -0.03976556512241225 -0.0096878886033267084 -0.16693965468084637 0.17416520312973427 0.022982824344171163 0.019137477835917002
leaf_weight=62.583416545763612 20.904206611216068 6.9057930372655374 4.4908504039049149 3.5853476449847212 8.1062501072883588 54.67503691278398
leaf_count=603 116 45 22 18 43 504
internal_value=0 -0.0139572 -0.071653 0.0117545 0.0693444 0.00284568
internal_weight=0 73.9801 11.3966 87.2708 11.6916 75.5792
internal_count=1351 670 67 681 61 620
is_linear=0
shrinkage=0.1


Tree=49
num_leaves=7
num_cat=0
split_feature=6 3 7 0 5 8
split_gain=2.56467 4.77188 3.68573 6.2299 3.53602 1.80712
threshold=1.1150000000000004 1187.0000000000002 33.850000000000001 66.050000000000011 12.250000000000002 8.9000000000000021
decision_type=2 2 2 2 2 2
left_child=1 5 -2 -4 -3 -1
right_child=2 4 3 -5 -6 -7
leaf_value=-0.11061887271884197 0.12645219206496378 -0.080876402265821865 -0.11181281932286996 0.0112644965395468 0.0060706437319968699 -0.016751809174591271
leaf_weight=6.6317944806069118 2.6100167892873278 5.2915756888687602 4.2922047656029454 98.328265226911753 40.299670747481287 2.9692596551030874
leaf_count=74 17 47 58 824 295 36
internal_value=0 -0.0175144 0.00910133 0.00611666 -0.00402092 -0.0815892
internal_weight=0 55.1923 105.23 102.62 45.5912 9.60105
internal_count=1351 452 899 882 342 110
is_linear=0
shrinkage=0.1


end of trees

feature_importances:
Scr_MAX=62
UREA_MAX=41
ventilation_time=41
Scr_MIN=38
egfrmin=29
WBC_MIN_=21
HR=20
DD_MAX=18
MIN_urine=14
P_MAX=14

parameters:
[boosting: gbdt]
[objective: binary]
[metric: binary_logloss]
[tree_learner: serial]
[device_type: cpu]
[data_sample_strategy: bagging]
[data: ]
[valid: ]
[num_iterations: 50]
[learning_rate: 0.1]
[num_leaves: 7]
[num_threads: 4]
[seed: 0]
[deterministic: 0]
[force_col_wise: 1]
[force_row_wise: 0]
[histogram_pool_size: -1]
[max_depth: 3]
[min_data_in_leaf: 20]
[min_sum_hessian_in_leaf: 0.001]
[bagging_fraction: 1]
[pos_bagging_fraction: 1]
[neg_bagging_fraction: 1]
[bagging_freq: 0]
[bagging_seed: 3]
[feature_fraction: 1]
[feature_fraction_bynode: 1]
[feature_fraction_seed: 2]
[extra_trees: 0]
[extra_seed: 6]
[early_stopping_round: 0]
[first_metric_only: 0]
[max_delta_step: 0]
[lambda_l1: 0]
[lambda_l2: 0]
[linear_lambda: 0]
[min_gain_to_split: 0]
[drop_rate: 0.1]
[max_drop: 50]
[skip_drop: 0.5]
[xgboost_dart_mode: 0]
[uniform_drop: 0]
[drop_seed: 4]
[top_rate: 0.2]
[other_rate: 0.1]
[min_data_per_group: 100]
[max_cat_threshold: 32]
[cat_l2: 10]
[cat_smooth: 10]
[max_cat_to_onehot: 4]
[top_k: 20]
[monotone_constraints: ]
[monotone_constraints_method: basic]
[monotone_penalty: 0]
[feature_contri: ]
[forcedsplits_filename: ]
[refit_decay_rate: 0.9]
[cegb_tradeoff: 1]
[cegb_penalty_split: 0]
[cegb_penalty_feature_lazy: ]
[cegb_penalty_feature_coupled: ]
[path_smooth: 0]
[interaction_constraints: ]
[verbosity: -1]
[saved_feature_importance_type: 0]
[use_quantized_grad: 0]
[num_grad_quant_bins: 4]
[quant_train_renew_leaf: 0]
[stochastic_rounding: 1]
[linear_tree: 0]
[max_bin: 255]
[max_bin_by_feature: ]
[min_data_in_bin: 3]
[bin_construct_sample_cnt: 200000]
[data_random_seed: 1]
[is_enable_sparse: 1]
[enable_bundle: 1]
[use_missing: 1]
[zero_as_missing: 0]
[feature_pre_filter: 1]
[pre_partition: 0]
[two_round: 0]
[header: 0]
[label_column: ]
[weight_column: ]
[group_column: ]
[ignore_column: ]
[categorical_feature: ]
[forcedbins_filename: ]
[precise_float_parser: 0]
[parser_config_file: ]
[objective_seed: 5]
[num_class: 1]
[is_unbalance: 0]
[scale_pos_weight: 1]
[sigmoid: 1]
[boost_from_average: 1]
[reg_sqrt: 0]
[alpha: 0.9]
[fair_c: 1]
[poisson_max_delta_step: 0.7]
[tweedie_variance_power: 1.5]
[lambdarank_truncation_level: 30]
[lambdarank_norm: 1]
[label_gain: ]
[lambdarank_position_bias_regularization: 0]
[eval_at: ]
[multi_error_top_k: 1]
[auc_mu_weights: ]
[num_machines: 1]
[local_listen_port: 12400]
[time_out: 120]
[machine_list_filename: ]
[machines: ]
[gpu_platform_id: -1]
[gpu_device_id: -1]
[gpu_use_dp: 0]
[num_gpu: 1]

end of parameters

pandas_categorical:[]
